FANN_FLO_2.1
num_layers=3
learning_rate=0.700000
connection_rate=1.000000
network_type=0
learning_momentum=0.000000
training_algorithm=3
train_error_function=1
train_stop_function=0
cascade_output_change_fraction=0.010000
quickprop_decay=-0.000100
quickprop_mu=1.750000
rprop_increase_factor=1.200000
rprop_decrease_factor=0.500000
rprop_delta_min=0.000000
rprop_delta_max=50.000000
rprop_delta_zero=0.100000
cascade_output_stagnation_epochs=12
cascade_candidate_change_fraction=0.010000
cascade_candidate_stagnation_epochs=12
cascade_max_out_epochs=150
cascade_min_out_epochs=50
cascade_max_cand_epochs=150
cascade_min_cand_epochs=50
cascade_num_candidate_groups=2
bit_fail_limit=3.49999999999999980000e-001
cascade_candidate_limit=1.00000000000000000000e+003
cascade_weight_multiplier=4.00000000000000020000e-001
cascade_activation_functions_count=10
cascade_activation_functions=3 5 7 8 10 11 14 15 16 17 
cascade_activation_steepnesses_count=4
cascade_activation_steepnesses=2.50000000000000000000e-001 5.00000000000000000000e-001 7.50000000000000000000e-001 1.00000000000000000000e+000 
layer_sizes=8 201 4 
scale_included=0
neurons (num_inputs, activation_function, activation_steepness)=(0, 0, 0.00000000000000000000e+000) (0, 0, 0.00000000000000000000e+000) (0, 0, 0.00000000000000000000e+000) (0, 0, 0.00000000000000000000e+000) (0, 0, 0.00000000000000000000e+000) (0, 0, 0.00000000000000000000e+000) (0, 0, 0.00000000000000000000e+000) (0, 0, 0.00000000000000000000e+000) (8, 5, 5.00000000000000000000e-001) (8, 5, 5.00000000000000000000e-001) (8, 5, 5.00000000000000000000e-001) (8, 5, 5.00000000000000000000e-001) (8, 5, 5.00000000000000000000e-001) (8, 5, 5.00000000000000000000e-001) (8, 5, 5.00000000000000000000e-001) (8, 5, 5.00000000000000000000e-001) (8, 5, 5.00000000000000000000e-001) (8, 5, 5.00000000000000000000e-001) (8, 5, 5.00000000000000000000e-001) (8, 5, 5.00000000000000000000e-001) (8, 5, 5.00000000000000000000e-001) (8, 5, 5.00000000000000000000e-001) (8, 5, 5.00000000000000000000e-001) (8, 5, 5.00000000000000000000e-001) (8, 5, 5.00000000000000000000e-001) (8, 5, 5.00000000000000000000e-001) (8, 5, 5.00000000000000000000e-001) (8, 5, 5.00000000000000000000e-001) (8, 5, 5.00000000000000000000e-001) (8, 5, 5.00000000000000000000e-001) (8, 5, 5.00000000000000000000e-001) (8, 5, 5.00000000000000000000e-001) (8, 5, 5.00000000000000000000e-001) (8, 5, 5.00000000000000000000e-001) (8, 5, 5.00000000000000000000e-001) (8, 5, 5.00000000000000000000e-001) (8, 5, 5.00000000000000000000e-001) (8, 5, 5.00000000000000000000e-001) (8, 5, 5.00000000000000000000e-001) (8, 5, 5.00000000000000000000e-001) (8, 5, 5.00000000000000000000e-001) (8, 5, 5.00000000000000000000e-001) (8, 5, 5.00000000000000000000e-001) (8, 5, 5.00000000000000000000e-001) (8, 5, 5.00000000000000000000e-001) (8, 5, 5.00000000000000000000e-001) (8, 5, 5.00000000000000000000e-001) (8, 5, 5.00000000000000000000e-001) (8, 5, 5.00000000000000000000e-001) (8, 5, 5.00000000000000000000e-001) (8, 5, 5.00000000000000000000e-001) (8, 5, 5.00000000000000000000e-001) (8, 5, 5.00000000000000000000e-001) (8, 5, 5.00000000000000000000e-001) (8, 5, 5.00000000000000000000e-001) (8, 5, 5.00000000000000000000e-001) (8, 5, 5.00000000000000000000e-001) (8, 5, 5.00000000000000000000e-001) (8, 5, 5.00000000000000000000e-001) (8, 5, 5.00000000000000000000e-001) (8, 5, 5.00000000000000000000e-001) (8, 5, 5.00000000000000000000e-001) (8, 5, 5.00000000000000000000e-001) (8, 5, 5.00000000000000000000e-001) (8, 5, 5.00000000000000000000e-001) (8, 5, 5.00000000000000000000e-001) (8, 5, 5.00000000000000000000e-001) (8, 5, 5.00000000000000000000e-001) (8, 5, 5.00000000000000000000e-001) (8, 5, 5.00000000000000000000e-001) (8, 5, 5.00000000000000000000e-001) (8, 5, 5.00000000000000000000e-001) (8, 5, 5.00000000000000000000e-001) (8, 5, 5.00000000000000000000e-001) (8, 5, 5.00000000000000000000e-001) (8, 5, 5.00000000000000000000e-001) (8, 5, 5.00000000000000000000e-001) (8, 5, 5.00000000000000000000e-001) (8, 5, 5.00000000000000000000e-001) (8, 5, 5.00000000000000000000e-001) (8, 5, 5.00000000000000000000e-001) (8, 5, 5.00000000000000000000e-001) (8, 5, 5.00000000000000000000e-001) (8, 5, 5.00000000000000000000e-001) (8, 5, 5.00000000000000000000e-001) (8, 5, 5.00000000000000000000e-001) (8, 5, 5.00000000000000000000e-001) (8, 5, 5.00000000000000000000e-001) (8, 5, 5.00000000000000000000e-001) (8, 5, 5.00000000000000000000e-001) (8, 5, 5.00000000000000000000e-001) (8, 5, 5.00000000000000000000e-001) (8, 5, 5.00000000000000000000e-001) (8, 5, 5.00000000000000000000e-001) (8, 5, 5.00000000000000000000e-001) (8, 5, 5.00000000000000000000e-001) (8, 5, 5.00000000000000000000e-001) (8, 5, 5.00000000000000000000e-001) (8, 5, 5.00000000000000000000e-001) (8, 5, 5.00000000000000000000e-001) (8, 5, 5.00000000000000000000e-001) (8, 5, 5.00000000000000000000e-001) (8, 5, 5.00000000000000000000e-001) (8, 5, 5.00000000000000000000e-001) (8, 5, 5.00000000000000000000e-001) (8, 5, 5.00000000000000000000e-001) (8, 5, 5.00000000000000000000e-001) (8, 5, 5.00000000000000000000e-001) (8, 5, 5.00000000000000000000e-001) (8, 5, 5.00000000000000000000e-001) (8, 5, 5.00000000000000000000e-001) (8, 5, 5.00000000000000000000e-001) (8, 5, 5.00000000000000000000e-001) (8, 5, 5.00000000000000000000e-001) (8, 5, 5.00000000000000000000e-001) (8, 5, 5.00000000000000000000e-001) (8, 5, 5.00000000000000000000e-001) (8, 5, 5.00000000000000000000e-001) (8, 5, 5.00000000000000000000e-001) (8, 5, 5.00000000000000000000e-001) (8, 5, 5.00000000000000000000e-001) (8, 5, 5.00000000000000000000e-001) (8, 5, 5.00000000000000000000e-001) (8, 5, 5.00000000000000000000e-001) (8, 5, 5.00000000000000000000e-001) (8, 5, 5.00000000000000000000e-001) (8, 5, 5.00000000000000000000e-001) (8, 5, 5.00000000000000000000e-001) (8, 5, 5.00000000000000000000e-001) (8, 5, 5.00000000000000000000e-001) (8, 5, 5.00000000000000000000e-001) (8, 5, 5.00000000000000000000e-001) (8, 5, 5.00000000000000000000e-001) (8, 5, 5.00000000000000000000e-001) (8, 5, 5.00000000000000000000e-001) (8, 5, 5.00000000000000000000e-001) (8, 5, 5.00000000000000000000e-001) (8, 5, 5.00000000000000000000e-001) (8, 5, 5.00000000000000000000e-001) (8, 5, 5.00000000000000000000e-001) (8, 5, 5.00000000000000000000e-001) (8, 5, 5.00000000000000000000e-001) (8, 5, 5.00000000000000000000e-001) (8, 5, 5.00000000000000000000e-001) (8, 5, 5.00000000000000000000e-001) (8, 5, 5.00000000000000000000e-001) (8, 5, 5.00000000000000000000e-001) (8, 5, 5.00000000000000000000e-001) (8, 5, 5.00000000000000000000e-001) (8, 5, 5.00000000000000000000e-001) (8, 5, 5.00000000000000000000e-001) (8, 5, 5.00000000000000000000e-001) (8, 5, 5.00000000000000000000e-001) (8, 5, 5.00000000000000000000e-001) (8, 5, 5.00000000000000000000e-001) (8, 5, 5.00000000000000000000e-001) (8, 5, 5.00000000000000000000e-001) (8, 5, 5.00000000000000000000e-001) (8, 5, 5.00000000000000000000e-001) (8, 5, 5.00000000000000000000e-001) (8, 5, 5.00000000000000000000e-001) (8, 5, 5.00000000000000000000e-001) (8, 5, 5.00000000000000000000e-001) (8, 5, 5.00000000000000000000e-001) (8, 5, 5.00000000000000000000e-001) (8, 5, 5.00000000000000000000e-001) (8, 5, 5.00000000000000000000e-001) (8, 5, 5.00000000000000000000e-001) (8, 5, 5.00000000000000000000e-001) (8, 5, 5.00000000000000000000e-001) (8, 5, 5.00000000000000000000e-001) (8, 5, 5.00000000000000000000e-001) (8, 5, 5.00000000000000000000e-001) (8, 5, 5.00000000000000000000e-001) (8, 5, 5.00000000000000000000e-001) (8, 5, 5.00000000000000000000e-001) (8, 5, 5.00000000000000000000e-001) (8, 5, 5.00000000000000000000e-001) (8, 5, 5.00000000000000000000e-001) (8, 5, 5.00000000000000000000e-001) (8, 5, 5.00000000000000000000e-001) (8, 5, 5.00000000000000000000e-001) (8, 5, 5.00000000000000000000e-001) (8, 5, 5.00000000000000000000e-001) (8, 5, 5.00000000000000000000e-001) (8, 5, 5.00000000000000000000e-001) (8, 5, 5.00000000000000000000e-001) (8, 5, 5.00000000000000000000e-001) (8, 5, 5.00000000000000000000e-001) (8, 5, 5.00000000000000000000e-001) (8, 5, 5.00000000000000000000e-001) (8, 5, 5.00000000000000000000e-001) (8, 5, 5.00000000000000000000e-001) (8, 5, 5.00000000000000000000e-001) (8, 5, 5.00000000000000000000e-001) (8, 5, 5.00000000000000000000e-001) (8, 5, 5.00000000000000000000e-001) (8, 5, 5.00000000000000000000e-001) (8, 5, 5.00000000000000000000e-001) (8, 5, 5.00000000000000000000e-001) (8, 5, 5.00000000000000000000e-001) (8, 5, 5.00000000000000000000e-001) (8, 5, 5.00000000000000000000e-001) (8, 5, 5.00000000000000000000e-001) (8, 5, 5.00000000000000000000e-001) (8, 5, 5.00000000000000000000e-001) (8, 5, 5.00000000000000000000e-001) (8, 5, 5.00000000000000000000e-001) (0, 5, 0.00000000000000000000e+000) (201, 5, 5.00000000000000000000e-001) (201, 5, 5.00000000000000000000e-001) (201, 5, 5.00000000000000000000e-001) (0, 5, 0.00000000000000000000e+000) 
connections (connected_to_neuron, weight)=(0, -3.24576452278706460000e-002) (1, -8.47909478973079000000e-002) (2, -4.80474725066185880000e-002) (3, -2.06467276855182500000e-002) (4, -3.87897143169279840000e-003) (5, -1.21671618031992410000e-002) (6, -8.73163514483757400000e-003) (7, 1.08376357841059820000e-002) (0, -5.74619698765081250000e-002) (1, 1.13057694072280130000e-001) (2, -9.38934899304236930000e-002) (3, -3.16479579850705290000e-002) (4, -1.98423219529697620000e-002) (5, -1.35204334333876490000e-002) (6, 4.37643804484976260000e-003) (7, -9.82207748578641830000e-003) (0, -2.74358235981334610000e-002) (1, 3.30369219192883920000e-002) (2, 9.29774526644633340000e-003) (3, -6.06076800570538950000e-003) (4, -1.91137901601208040000e-002) (5, 2.36849526735837330000e-003) (6, 2.82952861257717570000e-002) (7, 3.06062984687454740000e-002) (0, 3.29935552974292560000e-002) (1, -1.27868598239582350000e-001) (2, 2.21992505157584260000e-002) (3, 3.41214129522537850000e-003) (4, 1.50965473546097310000e-002) (5, 8.03057221057390420000e-004) (6, 1.30602116215750020000e-003) (7, -1.13288836407580370000e-002) (0, -1.13778345841471680000e-002) (1, 2.36274200480392810000e-002) (2, 1.42130922325538180000e-002) (3, 3.01313410401458990000e-002) (4, -2.02424816138786590000e-002) (5, -3.35271840966234800000e-004) (6, 2.36700845461206980000e-002) (7, 1.73702653253822380000e-002) (0, 3.15779845590735340000e-002) (1, -1.18117670233080510000e-002) (2, 4.27108134111032630000e-002) (3, -7.70354591006799670000e-003) (4, 1.79230013857501240000e-002) (5, 4.55636227206977600000e-003) (6, 1.73524530984623710000e-002) (7, -1.87697511789435140000e-002) (0, -6.01673445073019620000e-002) (1, 1.07842138963097010000e-001) (2, -2.28438664069523100000e-002) (3, -5.42364583208162430000e-002) (4, 6.79703459189351510000e-004) (5, -3.32889838846040370000e-002) (6, 1.03029899343154900000e-002) (7, -1.29638491198398390000e-002) (0, -1.04120140623857120000e-002) (1, -4.95060520272169530000e-002) (2, 3.38091079259579060000e-003) (3, 5.88072188499175800000e-003) (4, 3.49048866387100460000e-002) (5, 2.19444331669933590000e-003) (6, -2.72509011918481320000e-002) (7, 1.81064333283058180000e-002) (0, -1.34901441153063490000e-002) (1, 1.39365637304188300000e-001) (2, 5.86102729941117840000e-002) (3, 3.94652731580612470000e-002) (4, -3.81437326996872430000e-003) (5, -2.22338280964735730000e-002) (6, 2.18639166849416080000e-002) (7, -3.51647285729053610000e-002) (0, -1.57548359989931780000e-002) (1, 1.15382201165364420000e-002) (2, -3.40388893360143230000e-002) (3, -1.70710001017659870000e-002) (4, 1.09659133985274650000e-003) (5, -2.93398048924908010000e-002) (6, -7.07590638373287870000e-003) (7, -7.13304768422058730000e-003) (0, -3.79157426107982550000e-002) (1, 3.58071708805880390000e-003) (2, -5.08157081585054320000e-002) (3, -5.66052821997901650000e-003) (4, -2.31379238720070410000e-002) (5, 1.60688043823693090000e-002) (6, 1.98177709484811120000e-002) (7, 2.98888598167523000000e-003) (0, 2.27908890405239920000e-002) (1, 6.54184894189067940000e-002) (2, 5.63920079359126330000e-002) (3, 3.14440533399514690000e-002) (4, -1.98352958520430150000e-002) (5, 3.61939055929884620000e-002) (6, 1.67066180872938210000e-002) (7, 1.10197778756023980000e-002) (0, 2.44014402130346000000e-002) (1, -1.33323266053068350000e-001) (2, 1.33039353146765860000e-002) (3, 1.06953713359529080000e-002) (4, 5.10544811269654940000e-003) (5, 2.32398594424024740000e-002) (6, -1.00727785538271670000e-002) (7, -2.42591913523415620000e-002) (0, -4.83888684253891560000e-002) (1, 1.07059817710265430000e-001) (2, -2.43007202473080020000e-002) (3, -6.70091185903839030000e-003) (4, -2.12483069046152520000e-002) (5, 6.51457735415258630000e-003) (6, 4.23067552195216450000e-002) (7, -1.41906283960769720000e-002) (0, 2.11127212339203810000e-002) (1, -9.25573290136108280000e-002) (2, 6.85545424930220360000e-002) (3, 3.58879844289972660000e-002) (4, -1.40945266344557200000e-002) (5, -5.69224562805862620000e-003) (6, -4.73308565910444400000e-002) (7, -1.90656514237358310000e-002) (0, -7.44905098614547820000e-003) (1, 4.55036712332474410000e-003) (2, -3.98531804920457050000e-002) (3, -2.36916533334190560000e-002) (4, -7.51556199838021230000e-003) (5, -3.10458558975326700000e-002) (6, 3.43442666532670500000e-002) (7, 9.14917895711290890000e-003) (0, -2.33836934396763970000e-002) (1, 1.22552628470584330000e-001) (2, -1.06791334618224150000e-001) (3, -7.53241216859682900000e-002) (4, -8.58746006633496690000e-003) (5, -2.08503867187294910000e-002) (6, 1.69386501806684350000e-002) (7, -3.19607720519408870000e-002) (0, 3.03299602579999400000e-002) (1, -1.44113139152152820000e-001) (2, 8.41108344447328150000e-002) (3, 1.50777595084638890000e-002) (4, 4.30993135694170420000e-002) (5, 1.07749563339588470000e-002) (6, -4.87213177673572330000e-002) (7, -1.63265899627051850000e-002) (0, 4.05228811879589440000e-003) (1, -1.65717686840485370000e-002) (2, -1.59633810828412990000e-002) (3, -2.11207834680972590000e-002) (4, 3.46658957932802420000e-002) (5, -2.68725843608940140000e-002) (6, -3.35600556839520530000e-002) (7, 2.69864413308681940000e-002) (0, 1.17167153600234550000e-002) (1, 9.00054408906558880000e-002) (2, 3.89989487003866360000e-002) (3, -4.42201990469993270000e-004) (4, -2.07114695992889030000e-002) (5, -1.12943831044760910000e-002) (6, 1.80313553291792450000e-002) (7, 2.81536248377740670000e-002) (0, -6.00751012366303880000e-003) (1, 1.47607793676956390000e-001) (2, 3.91706383035434480000e-002) (3, 1.92136795075733310000e-002) (4, 1.14442192589207500000e-002) (5, 5.31763259934970540000e-003) (6, 4.47783187331874250000e-002) (7, 6.09292644186468140000e-003) (0, 1.78444404248536380000e-002) (1, -5.92517103991887370000e-003) (2, 1.48804306284148600000e-002) (3, -7.38513735737449450000e-005) (4, 2.50708198300077840000e-003) (5, -2.36260794059518710000e-002) (6, -2.02086849613476690000e-002) (7, -2.60150722165529320000e-002) (0, -5.47371511135083670000e-002) (1, 1.31551560125843210000e-001) (2, -6.97164511375947260000e-002) (3, -6.73653537062665620000e-002) (4, -8.47803503415151850000e-003) (5, -1.88243331149670830000e-002) (6, 3.27607069101961900000e-002) (7, -8.00802273373121820000e-003) (0, -6.50748042941484950000e-003) (1, 5.45996835374756020000e-002) (2, 2.25088223290310850000e-002) (3, -2.95098099067781730000e-003) (4, -9.58317095682639610000e-003) (5, 4.89983068350725080000e-003) (6, -3.36066239509852330000e-003) (7, -1.37169541455211350000e-002) (0, -2.57557357852544360000e-002) (1, 6.70741496962770220000e-002) (2, -1.34975660320543080000e-002) (3, 2.17428138499670030000e-002) (4, -8.55055953729245500000e-004) (5, 2.42613556123124040000e-002) (6, 1.87965315020080650000e-002) (7, -1.78299849301136010000e-002) (0, 2.02851114650400220000e-002) (1, -1.92949481791476470000e-002) (2, 8.19724599535496670000e-002) (3, 5.57799583774295020000e-002) (4, -3.33980556144384680000e-002) (5, 2.32049956151911850000e-002) (6, -1.69585422837032030000e-002) (7, -1.17068622669328390000e-002) (0, 1.97960283068008840000e-002) (1, -1.08814110845058390000e-001) (2, -5.05835805429545940000e-002) (3, -2.16480304734774260000e-002) (4, 7.33398487869510890000e-003) (5, 1.97694680114662460000e-002) (6, -1.33622694804727360000e-002) (7, 1.80658420181575050000e-002) (0, 4.95392872381603470000e-003) (1, 1.38089657292173470000e-002) (2, -4.39489988527126530000e-002) (3, -3.89896306302149190000e-002) (4, -5.58350394911002760000e-003) (5, 1.93121204032172080000e-002) (6, 8.87380271143690300000e-004) (7, 2.79062689879486440000e-002) (0, 9.07817455880123930000e-003) (1, -1.38662618805399680000e-001) (2, 2.32949805821596090000e-002) (3, 4.48309472839496240000e-003) (4, 2.50726072246455490000e-002) (5, 2.68596987502044760000e-002) (6, -3.05043814787210810000e-002) (7, 7.36829205706642560000e-003) (0, 6.08310609691431990000e-003) (1, -8.16163439848881650000e-002) (2, -4.55716605209580750000e-002) (3, -3.16730355246944080000e-002) (4, 1.99956886748913070000e-002) (5, -1.88747548382356790000e-002) (6, -9.26953264164248740000e-004) (7, -1.18395916701930310000e-002) (0, 2.62424070198190910000e-003) (1, 7.91638660130091210000e-002) (2, -1.61907271204931900000e-002) (3, 3.53682435672077050000e-002) (4, 1.17674427583086030000e-002) (5, 2.46799820053631610000e-002) (6, -5.65188194546281920000e-003) (7, -1.75754700912513390000e-002) (0, -3.70788807194796160000e-002) (1, -1.46118518852469440000e-002) (2, -8.31715911556927670000e-002) (3, -5.82715599385139680000e-002) (4, 2.35765894343822750000e-002) (5, -4.45823136097318880000e-003) (6, 2.34452368035408640000e-002) (7, 8.42945589949858040000e-003) (0, -3.60161800476162110000e-002) (1, 4.62866988163299420000e-002) (2, -4.69227957343915090000e-002) (3, -5.99708968720985000000e-002) (4, 2.82452272429812680000e-002) (5, -3.56268210542841630000e-002) (6, -9.15016646697573880000e-003) (7, 1.78559618671671540000e-002) (0, -2.99167966600582050000e-002) (1, 4.10959146490638070000e-002) (2, -8.55161617492301990000e-002) (3, -5.83420458406280350000e-002) (4, 2.67160327320692500000e-002) (5, -1.53742844843617900000e-002) (6, -1.39255121027319590000e-002) (7, 2.87848062035088830000e-002) (0, -2.15182651922409440000e-002) (1, 4.41551421043694030000e-002) (2, 2.36862733355777470000e-002) (3, -1.72738266443872580000e-002) (4, 1.17756466908610170000e-003) (5, 9.04174473607696930000e-003) (6, -1.40717032855335600000e-002) (7, -2.10935219041071990000e-002) (0, 2.00094237473711250000e-002) (1, 7.36662047228518190000e-002) (2, 6.21025160283734320000e-002) (3, 3.17392078022448870000e-002) (4, 1.63150391892972030000e-002) (5, -5.75044152328103070000e-003) (6, 3.31374800333842850000e-002) (7, 1.71664272913466150000e-002) (0, -2.12903503132236930000e-002) (1, 3.52542081101903800000e-002) (2, -1.06313860606924060000e-001) (3, -7.52324235961826930000e-002) (4, -3.20164123865610480000e-002) (5, -6.03504272534868740000e-003) (6, 3.25008544858375120000e-002) (7, 2.38616266034128860000e-002) (0, 1.68450362140410110000e-002) (1, -8.50475065786906600000e-002) (2, 8.73072222405051750000e-003) (3, 5.01702978595170370000e-002) (4, -2.99174366701981420000e-002) (5, 3.04187811245389090000e-002) (6, -5.07782384317539900000e-002) (7, -1.77982421567058760000e-002) (0, -1.82075152190843930000e-002) (1, 1.02008504994334070000e-001) (2, -7.58370026592896790000e-002) (3, -8.25544212598745690000e-002) (4, -2.68036286928114080000e-002) (5, -3.31971383319289920000e-002) (6, 4.68467270377867580000e-002) (7, -3.44132788420131240000e-002) (0, -2.45839489909028920000e-003) (1, -9.34565186470725650000e-002) (2, 1.95780246747216770000e-002) (3, 4.69350317692845690000e-002) (4, 3.18021201233253250000e-002) (5, -2.25556342352467610000e-002) (6, -4.42672808904996450000e-002) (7, -1.46310866880202520000e-002) (0, 1.92978008428975300000e-002) (1, -4.88774577726073310000e-002) (2, -8.74847234944303160000e-002) (3, -1.25384664206671950000e-002) (4, 5.00629025287942920000e-003) (5, -2.65702210900931810000e-002) (6, -2.45535419802502260000e-002) (7, -1.41332725380162400000e-002) (0, -3.91195275345728070000e-003) (1, -1.46127572877998830000e-002) (2, 4.34891521764335170000e-002) (3, 4.63063521317098260000e-002) (4, 2.70787888874340820000e-003) (5, 3.23249932001549930000e-002) (6, -1.98420510690302120000e-002) (7, 2.48325058435851370000e-002) (0, -7.54755180978146370000e-002) (1, 2.03530230310820650000e-001) (2, -1.27339497635182790000e-001) (3, -4.37195226183375650000e-002) (4, -2.73605741807093420000e-002) (5, -4.69397790214521950000e-002) (6, 7.62552739793446730000e-002) (7, 2.01717557732241090000e-002) (0, -4.29986738532078390000e-002) (1, 6.05776543765524990000e-002) (2, -5.46788170012197860000e-002) (3, -3.02723659194822460000e-002) (4, -3.30224990357670600000e-002) (5, 2.21599987890533230000e-002) (6, -1.38438246014935140000e-002) (7, -1.34420047452908750000e-002) (0, -2.83637210424881050000e-002) (1, 1.17153202955524840000e-001) (2, -1.25741425215476680000e-003) (3, -2.66694902384987320000e-002) (4, 1.99316505789788360000e-002) (5, -3.15215496452452140000e-002) (6, 4.38718572720193030000e-002) (7, 4.20344603407452140000e-003) (0, 4.18050003028526130000e-002) (1, -1.64544185950095290000e-001) (2, -7.65132338823506230000e-002) (3, -5.41589869188125670000e-002) (4, -1.99396556871842640000e-003) (5, 7.75317637688588220000e-004) (6, -3.16621575136367410000e-002) (7, 2.31171742586966340000e-002) (0, 4.93450363102416240000e-003) (1, -3.04776618353910750000e-002) (2, -6.00994124205382340000e-002) (3, -3.68543375639072140000e-003) (4, -8.42674948135726560000e-003) (5, -3.04931370492751850000e-002) (6, -8.70181516638557190000e-003) (7, 8.78165757244355440000e-003) (0, 2.20736466230055590000e-002) (1, 3.49200457819780140000e-002) (2, 6.62361098524564680000e-002) (3, 2.85254126187057220000e-002) (4, -7.93995192319513210000e-003) (5, 1.18739266477804730000e-002) (6, -5.94340708798393080000e-004) (7, -3.26372667463739680000e-002) (0, 4.69702514610584230000e-003) (1, -8.65578943527386820000e-002) (2, -2.25055758578526920000e-002) (3, -3.18550204514566820000e-002) (4, 1.77408004516894060000e-002) (5, 8.54501582668306880000e-003) (6, -4.56585848877421460000e-002) (7, 9.84458220605520170000e-003) (0, 2.05693649028001850000e-002) (1, 1.04976654669857210000e-001) (2, 5.36264772002893600000e-002) (3, 1.42609403854948370000e-002) (4, -1.84229535087833030000e-002) (5, 1.57040512708078350000e-002) (6, 1.10412658707174710000e-003) (7, -3.08406772229906370000e-002) (0, -1.04018773321902650000e-002) (1, -1.09760337012479780000e-001) (2, 8.34956085617712120000e-003) (3, -4.50086448473732350000e-003) (4, 2.25386305630623440000e-002) (5, 3.69629752933804830000e-004) (6, -4.87109259235031230000e-002) (7, -8.99269382825343240000e-003) (0, 1.05271861206321800000e-003) (1, 3.61654753872438370000e-002) (2, -9.73666525074621540000e-002) (3, -4.37584644264766500000e-002) (4, -2.99302691157475530000e-002) (5, -4.65368655360962140000e-003) (6, 1.80625323196141190000e-002) (7, 1.18015343761630230000e-002) (0, 2.96365859361470240000e-002) (1, 6.83089098869476410000e-002) (2, 7.50569601641927350000e-002) (3, 6.65595582164971860000e-002) (4, -1.35308107931523540000e-002) (5, 7.16654191751121220000e-003) (6, 1.52331312391465310000e-002) (7, -3.04898811596214970000e-002) (0, -1.59938151003813230000e-002) (1, -4.76237657290188090000e-002) (2, 2.95942797808297460000e-003) (3, 2.65105054101528740000e-002) (4, 1.31829697633103220000e-002) (5, -2.47651055235686870000e-002) (6, 1.41020352060715270000e-002) (7, -5.01010436141058250000e-003) (0, 7.83768753677473520000e-003) (1, 4.22311691780588440000e-002) (2, 8.22343799422546870000e-002) (3, 6.53183119259110880000e-002) (4, 1.43120861724042890000e-002) (5, 4.74929952969741810000e-003) (6, -2.05286084883811480000e-002) (7, 7.66762202480984580000e-003) (0, 2.12048238192910150000e-002) (1, -3.62707941952007880000e-002) (2, 8.57664508538121960000e-002) (3, 2.31252342895897670000e-002) (4, 3.37912602394531410000e-002) (5, -4.36344908166365780000e-003) (6, -3.25430495248879780000e-002) (7, 6.42982536056881800000e-003) (0, -1.48117573566459470000e-003) (1, -1.49551358029623660000e-001) (2, 7.61334823524873520000e-003) (3, 2.90055622099403730000e-002) (4, -7.34204042581260930000e-003) (5, 2.08514989982500520000e-002) (6, -4.34358383275894530000e-002) (7, 6.72878306544504120000e-003) (0, 7.76601913348465550000e-003) (1, 4.46288102062184220000e-002) (2, 1.23658488475860240000e-002) (3, -1.05676367070597600000e-002) (4, -1.92670177165738120000e-002) (5, -2.46961238217228260000e-002) (6, 3.18161409691680880000e-004) (7, -2.40167774984225180000e-002) (0, -2.88190233581022310000e-002) (1, 8.51541460828339900000e-002) (2, 1.03240731718836090000e-002) (3, 9.57522277069765980000e-003) (4, 1.00255294258501880000e-002) (5, 2.65791245991326690000e-003) (6, 1.16063888236046080000e-003) (7, 2.25531450776250770000e-002) (0, -3.97162344943058770000e-002) (1, 1.46506370616218850000e-001) (2, 3.22792903281663710000e-002) (3, 1.28424947341585700000e-002) (4, -1.91922147245413600000e-002) (5, 5.81864519109230510000e-003) (6, 2.25660021507855660000e-002) (7, 1.55147057987421730000e-002) (0, 3.56550076179216750000e-002) (1, -8.38585054864074140000e-002) (2, 2.41442454929618330000e-002) (3, 3.35291057740078270000e-002) (4, -1.42160126047453350000e-002) (5, 1.90163502115795710000e-002) (6, 9.58649593511570410000e-003) (7, 3.34588173979271860000e-002) (0, -2.38699791731571260000e-003) (1, 4.37729112957519070000e-002) (2, -2.30576090331342840000e-003) (3, -2.81702814425978140000e-002) (4, 1.04199095488578290000e-002) (5, -2.97562325838444070000e-002) (6, -1.81785077962554780000e-002) (7, -3.04384268700836520000e-002) (0, -2.13889787232435200000e-002) (1, 3.37048705244748710000e-002) (2, -6.97402084285642530000e-003) (3, 1.58555539046325540000e-002) (4, 2.62959336668674990000e-003) (5, 1.99228026720234750000e-002) (6, 1.64733958655065220000e-002) (7, 2.19880577478776400000e-002) (0, 2.54593579458016960000e-002) (1, -9.11916173212404400000e-002) (2, 1.13615926012978850000e-002) (3, 1.75877592308835780000e-002) (4, 3.44969290542838990000e-002) (5, 8.27918730233171900000e-003) (6, -4.50280122361874160000e-002) (7, 2.27510634181538990000e-002) (0, -2.05606244119381150000e-002) (1, -1.24208231252430440000e-001) (2, -2.16197104499409110000e-002) (3, -3.50338421854730910000e-002) (4, -1.89981231106180620000e-003) (5, 2.08087357990617490000e-002) (6, -2.86008890735693460000e-002) (7, -2.38672558560033280000e-002) (0, -2.80838100475963100000e-002) (1, 7.73632895040535090000e-002) (2, -6.76528388949227820000e-002) (3, -3.11508058529568230000e-002) (4, -3.43502629180046370000e-002) (5, 6.56143617638115310000e-003) (6, 3.19663005961607070000e-002) (7, -1.13674930914574450000e-002) (0, 6.53899234160769390000e-002) (1, -1.13232863408620020000e-001) (2, 1.01256503869141710000e-001) (3, 7.97504645787930070000e-002) (4, -2.87568906940619460000e-003) (5, 1.82403409903980910000e-002) (6, -7.46452194607261090000e-003) (7, 2.85353384760547550000e-002) (0, -1.85869879782545770000e-002) (1, 6.84149345813453570000e-002) (2, 3.67271052268315080000e-002) (3, 5.07369804964044250000e-003) (4, -1.78049408345986210000e-002) (5, 2.01900952186727590000e-002) (6, 1.24291530534689970000e-003) (7, 2.37335247252861950000e-002) (0, -1.76433515889285290000e-002) (1, -8.63935415518915160000e-003) (2, -1.89697599839048010000e-002) (3, -1.52681844373626380000e-002) (4, 1.68982798270136580000e-002) (5, -3.15761830417453930000e-002) (6, -1.49820442982056630000e-002) (7, 1.51410514145430810000e-002) (0, -1.27863585131125120000e-002) (1, -4.89900431024568460000e-002) (2, -2.14670082111326000000e-002) (3, 7.70583325978036870000e-003) (4, -2.00554673245826460000e-002) (5, -1.12358332563882690000e-002) (6, -1.24985666781189820000e-002) (7, -2.87688091032286650000e-002) (0, -4.04421465173680290000e-002) (1, -2.07828627122955130000e-002) (2, -5.08938623324393030000e-002) (3, -3.15811873957440180000e-002) (4, -1.16158089968191500000e-002) (5, -3.38595161444919380000e-002) (6, 3.47319953265541400000e-002) (7, 2.22956927820715280000e-002) (0, 1.72450875830304360000e-002) (1, -1.10171857478372540000e-002) (2, -8.03098738512450680000e-003) (3, 2.14844800834807430000e-002) (4, 3.16862708126692470000e-002) (5, 5.51357290026615370000e-003) (6, -1.97051509563768950000e-002) (7, -8.69970462967106610000e-003) (0, 1.04487374407185600000e-002) (1, 3.52200504348985090000e-002) (2, 4.80502048045815260000e-002) (3, 8.14206419864194410000e-003) (4, 2.11633257345050130000e-002) (5, 6.29601456725350800000e-003) (6, -1.60218828871461490000e-002) (7, 1.08941155301049840000e-002) (0, 1.53239793216440410000e-002) (1, -2.11036312325855730000e-001) (2, -3.99063726968754420000e-002) (3, -1.78706001628991360000e-002) (4, -3.94272036443194670000e-003) (5, 3.23709424871885120000e-002) (6, -3.84195928192844900000e-002) (7, -3.21007979903433330000e-003) (0, -1.65829942453078330000e-002) (1, 1.43541002094598760000e-002) (2, -8.97328322977341970000e-002) (3, -1.71517387635734650000e-002) (4, 3.14338527006714770000e-002) (5, -3.16137931379121620000e-002) (6, 3.27055653851290390000e-002) (7, -2.43857207252639980000e-002) (0, -3.54395084771230020000e-002) (1, 7.35965512033038700000e-002) (2, 2.34794139901738500000e-002) (3, -1.59173913774940080000e-002) (4, -1.98359188703529260000e-002) (5, -1.45184885098898570000e-002) (6, 6.35251331028980230000e-003) (7, 7.45587869691331610000e-003) (0, -6.11276651154914630000e-003) (1, -3.55789158263687540000e-002) (2, 1.00095291249066180000e-002) (3, 5.27116054550682900000e-002) (4, -1.33282282204580940000e-002) (5, 1.34955059221750030000e-002) (6, 1.05135262567570990000e-002) (7, -2.25973076491740340000e-002) (0, 5.50564882914558050000e-003) (1, 2.10248231705881080000e-002) (2, 4.94760467045063590000e-002) (3, 4.20947495739396950000e-002) (4, 2.82059566380818620000e-002) (5, -2.08931748787511420000e-002) (6, 2.06183831328092320000e-003) (7, -2.12740120534394600000e-002) (0, -8.70243042940694460000e-003) (1, -8.51681360007436330000e-002) (2, 5.99360415094487150000e-002) (3, 2.83893990427591840000e-002) (4, 2.43235223361457330000e-002) (5, 3.11658084049637600000e-002) (6, -3.15023981631689170000e-002) (7, 3.84553066101460610000e-003) (0, 4.31905255934261490000e-002) (1, -1.92716304029204830000e-002) (2, 5.86594690433665660000e-002) (3, 5.86024775287505160000e-002) (4, 2.81898237191413600000e-003) (5, 2.95267269438502890000e-002) (6, 2.24485916573738990000e-002) (7, -2.11771573461386060000e-002) (0, 6.69461647515441900000e-002) (1, -1.93264315596734760000e-001) (2, 1.00018462316277010000e-001) (3, 2.12507307186369300000e-002) (4, -2.17836703886338970000e-002) (5, 4.20318289359394930000e-002) (6, -2.48527526347399540000e-002) (7, 1.18134338837059950000e-002) (0, -4.39143234839835600000e-002) (1, 4.63143209166842830000e-002) (2, -9.57420274570558030000e-002) (3, -3.87198519754592060000e-002) (4, -9.23333158900536450000e-003) (5, -3.43297907361567590000e-002) (6, 3.83769777653892310000e-002) (7, -2.77846485317955120000e-002) (0, -4.64811402915092650000e-003) (1, -4.93330561594993240000e-003) (2, -5.26626272998005000000e-002) (3, -2.20806183069673440000e-002) (4, -2.48417302710352800000e-002) (5, 1.07246181940627120000e-002) (6, 3.30156384830544370000e-002) (7, 8.58316949625686530000e-003) (0, -1.81301239214758940000e-002) (1, -3.82284534860045310000e-002) (2, -1.90018473653426440000e-002) (3, -7.52536882250729070000e-003) (4, -3.16047239068665370000e-003) (5, -2.38927114785354130000e-002) (6, -3.60012088979564450000e-002) (7, -5.37600190134166020000e-003) (0, 1.40415455418865170000e-002) (1, -9.76958976851843770000e-004) (2, -9.34146858122898430000e-004) (3, -3.13467305114909780000e-002) (4, -1.82222555956484160000e-002) (5, 4.69467249981709270000e-003) (6, 1.59017203550197960000e-002) (7, -2.42020777657621190000e-003) (0, -3.40452941898648860000e-003) (1, 8.20188090128228520000e-002) (2, -4.58502452194516010000e-002) (3, -3.58647686336528920000e-002) (4, 2.49049935121120860000e-002) (5, 6.82671283163693770000e-003) (6, 7.61259227933607650000e-003) (7, 2.42240905619061090000e-002) (0, -4.30346020218982590000e-002) (1, 1.92932073167450870000e-001) (2, 9.90539404976783190000e-003) (3, 6.35524336629586780000e-004) (4, 5.68765863639557070000e-003) (5, -3.54832124844422990000e-002) (6, 1.04311276077802150000e-002) (7, -1.72568654555285490000e-002) (0, -2.80794803762596070000e-002) (1, 4.82007080447740840000e-003) (2, 5.01738729215654620000e-003) (3, 1.83101823019631500000e-002) (4, -1.82656031836411250000e-002) (5, 1.37778044355071100000e-003) (6, 2.84215356020556700000e-002) (7, 1.07000247994387640000e-002) (0, -2.88952938232612500000e-002) (1, 7.39769322260550590000e-002) (2, -3.67015638419142880000e-002) (3, 6.42001824089266390000e-003) (4, 1.47511866512802220000e-002) (5, 1.93213469900275050000e-003) (6, -5.29903662446983090000e-004) (7, -9.46322436035578960000e-003) (0, -1.19455014274608050000e-002) (1, 1.25552965319856850000e-001) (2, 8.56077128104577170000e-002) (3, 4.42059513075567650000e-002) (4, -2.40971625373944640000e-002) (5, 1.92424774530087770000e-002) (6, 4.04685017822131730000e-002) (7, -1.61972278044926820000e-002) (0, 9.52002451313145250000e-004) (1, -1.41711183377045610000e-001) (2, 5.42341034010630080000e-002) (3, 6.03364643837969870000e-002) (4, 2.74605861675210620000e-002) (5, 3.60892114842075590000e-002) (6, -3.76555065051357510000e-002) (7, -1.42923848338275640000e-002) (0, -6.05047736469809930000e-003) (1, -3.56799379293929950000e-002) (2, -1.64383179856966290000e-002) (3, -2.36206780896705240000e-003) (4, -2.12362600765826430000e-002) (5, 1.92619692656064810000e-003) (6, -1.75868760312525990000e-002) (7, 2.23114156585105220000e-002) (0, 1.34917059295257680000e-003) (1, -2.34132502333007540000e-002) (2, 2.19642293339408040000e-002) (3, -4.52821195026159760000e-003) (4, -1.40783509179632280000e-003) (5, 1.23441885219643010000e-002) (6, 5.54586947836567450000e-003) (7, 5.59611458652980750000e-003) (0, -2.79798470138736400000e-002) (1, 3.58418537916169590000e-002) (2, -2.83399279408676450000e-002) (3, -2.20814713473616240000e-002) (4, -2.65942718676430750000e-002) (5, -9.92408030255167130000e-003) (6, 3.40744674614716770000e-002) (7, -2.13894438457643480000e-002) (0, 1.44478679580175310000e-002) (1, 1.86878696196353220000e-002) (2, -6.78491400953748770000e-002) (3, -5.61496737042335230000e-002) (4, -2.07240260822335740000e-002) (5, -1.27988573653020110000e-002) (6, 5.95416166017679900000e-003) (7, -1.86745149533492330000e-002) (0, -2.51980071226145940000e-002) (1, -4.98324179992008720000e-002) (2, -2.40126911066176980000e-003) (3, -2.89647907907579490000e-002) (4, 3.93832151810762300000e-002) (5, -3.30248765385068660000e-002) (6, 1.54400541509210760000e-002) (7, -2.51883467069143850000e-002) (0, 3.07003442655492740000e-002) (1, -7.34893878900777230000e-002) (2, 9.15850412046184810000e-002) (3, 6.65589755627102870000e-002) (4, -7.57557839271705020000e-003) (5, 6.95975568175778710000e-003) (6, -4.30177946578260210000e-002) (7, 3.00113274416152170000e-002) (0, 1.00043877939287680000e-003) (1, 1.85087115049885650000e-002) (2, 3.61996342609271560000e-002) (3, 6.79238100089845500000e-003) (4, 6.24618867974298390000e-003) (5, -1.73717937038398820000e-002) (6, -1.85765673906523010000e-002) (7, -2.02550905319338230000e-002) (0, 5.65359306148578970000e-003) (1, 1.03023133790788470000e-001) (2, 8.13813360328688030000e-002) (3, 3.16582508868751760000e-002) (4, -3.56921650441965540000e-002) (5, -2.61903205271411390000e-002) (6, -1.00262970031024580000e-002) (7, 2.42144437039356690000e-002) (0, -7.20013018811150180000e-002) (1, 1.18253268300557120000e-001) (2, -1.04004152249431770000e-001) (3, -7.21180792171759730000e-002) (4, 2.17064949141872210000e-004) (5, -3.13340636227030510000e-002) (6, 6.65565331385943450000e-002) (7, -1.84225469002645930000e-002) (0, -8.66469660629769560000e-003) (1, 7.40107751384398990000e-002) (2, -2.74923826520599260000e-002) (3, 7.86571372941451820000e-003) (4, -2.02447763095648380000e-002) (5, -1.50736689162459800000e-002) (6, 9.90259492744707640000e-003) (7, 1.81720135956309340000e-002) (0, -3.62382291993218910000e-003) (1, 2.45019537102716830000e-003) (2, 6.03760000029147090000e-002) (3, 2.89210077261707330000e-002) (4, -1.67129794178352030000e-002) (5, -5.65514415305675130000e-003) (6, -3.38393380242389620000e-002) (7, -9.81981190413744670000e-003) (0, 5.16777533320857340000e-002) (1, -1.74424671873707470000e-001) (2, -1.74954868722819800000e-002) (3, 2.70834444465667990000e-002) (4, -7.09778384484717820000e-003) (5, 4.89078435420364580000e-004) (6, -1.77777445501884480000e-002) (7, 8.99959075960834150000e-003) (0, 3.05051960283165250000e-002) (1, -6.41740807273884770000e-002) (2, 4.65190197672978730000e-003) (3, 1.50175032412880480000e-002) (4, 3.13378653119792410000e-002) (5, 4.38043623764002460000e-003) (6, 2.09243816825217810000e-002) (7, 1.67366707695478930000e-002) (0, -1.38138272362168160000e-002) (1, 3.60145166648417540000e-002) (2, -2.85649064227656190000e-002) (3, -5.55928435478409910000e-002) (4, 1.41801096697988590000e-003) (5, -8.93790148949365380000e-003) (6, 1.96696721113702980000e-002) (7, -3.04006538904796170000e-002) (0, -3.15682945871499160000e-002) (1, 5.22820096478418960000e-002) (2, 5.17852377280636560000e-002) (3, -5.19745290823870210000e-003) (4, -1.64940083316589370000e-002) (5, 3.16316669224189980000e-002) (6, 1.34073722411923000000e-002) (7, -1.34789996521575710000e-002) (0, -7.63297220503254300000e-003) (1, 4.24521550284914850000e-002) (2, 4.11469938875054860000e-002) (3, -6.30761067593841200000e-003) (4, -2.82190549534213770000e-002) (5, 1.55473541324081170000e-002) (6, -1.86211614982715640000e-002) (7, 6.78930100711785250000e-003) (0, -2.85299175341305060000e-002) (1, -5.13572377146669780000e-002) (2, -5.33953526934380850000e-002) (3, -5.19440896208204080000e-002) (4, -1.77810888526505370000e-002) (5, 9.98616831962305730000e-003) (6, 1.29761457644150100000e-002) (7, -6.23487302127503740000e-003) (0, -1.59943790992875340000e-003) (1, -9.67725103629202830000e-002) (2, 8.30703252934397730000e-002) (3, 6.42484485162692630000e-002) (4, 1.09913716741665210000e-002) (5, 2.16006425310539750000e-002) (6, 4.79907401074627130000e-004) (7, 3.19142660377417920000e-002) (0, 3.66778923700911560000e-002) (1, 2.77413587115628340000e-002) (2, 3.07334288429675080000e-002) (3, 4.43859780185501190000e-002) (4, 1.26670766238654380000e-002) (5, -4.16057870214540500000e-003) (6, -2.35025756860276840000e-002) (7, -1.62581889302479900000e-002) (0, -2.56896396184691930000e-002) (1, 1.19759048703835730000e-001) (2, -7.79871013443560610000e-002) (3, -7.20385735763555830000e-002) (4, -2.52947241398736350000e-002) (5, -3.68176163470610930000e-002) (6, 3.74538682343991810000e-003) (7, -1.09106736594443560000e-002) (0, 1.56165512388714790000e-002) (1, -5.68240316471228730000e-002) (2, 8.63257324072676800000e-002) (3, 5.32961161771545800000e-002) (4, 1.16594528950920650000e-002) (5, 1.36711639026325760000e-002) (6, -4.83798079970579820000e-002) (7, 1.40974720173588640000e-002) (0, -7.79113321595730460000e-003) (1, -6.42115473921974490000e-002) (2, 2.49905010644597100000e-002) (3, 4.74179504977013600000e-002) (4, 1.15093183879610220000e-003) (5, 2.78291124710929420000e-002) (6, 1.64827183270160080000e-002) (7, 1.28345880015241670000e-002) (0, -3.76827109074408160000e-003) (1, 3.95570951984887260000e-002) (2, -1.58879935429235040000e-002) (3, 6.29103112745886020000e-003) (4, 1.76431813093802380000e-002) (5, -5.41788628647684070000e-003) (6, 1.24116581480811160000e-002) (7, 1.83140858300102970000e-002) (0, 1.46153765493429790000e-003) (1, 2.05081679474594190000e-001) (2, -1.10755882345245070000e-002) (3, -4.02391362291128400000e-004) (4, -4.35256044278526930000e-002) (5, -1.16475961218254210000e-002) (6, 5.39639849776999480000e-002) (7, -6.48546049632639420000e-003) (0, 1.97853049107799060000e-002) (1, 1.00673398148208930000e-001) (2, 1.05896139737763370000e-002) (3, -8.08682612083725520000e-003) (4, -3.12688440370739660000e-002) (5, 7.36656514128044420000e-003) (6, 3.07978370553946700000e-002) (7, -1.77147596592039550000e-004) (0, -1.83741018094627440000e-002) (1, -5.73763606219608100000e-002) (2, 4.68805590179999580000e-002) (3, -8.41281669653877640000e-003) (4, 1.52457538270368740000e-002) (5, 3.27363031987217490000e-002) (6, -1.84141005478792760000e-002) (7, -3.37831172404417850000e-003) (0, 2.45770166147317800000e-002) (1, -1.05852827119691140000e-001) (2, 6.98732919286806920000e-003) (3, -4.56733425168849480000e-003) (4, -1.10370047851549300000e-002) (5, 2.20031390104307200000e-002) (6, 7.47610649445029550000e-004) (7, -1.12558187142643010000e-002) (0, 5.08306095951479230000e-002) (1, -1.47792863499236510000e-001) (2, 3.26194659600688790000e-002) (3, 3.52043740166620570000e-002) (4, 9.85620264493930300000e-003) (5, -1.48053501055318250000e-002) (6, -6.30421593326887240000e-002) (7, -1.56956040845990100000e-002) (0, -1.11577617570205160000e-002) (1, 1.19199994876243800000e-001) (2, 8.77936831875734820000e-002) (3, 4.54838165680368780000e-002) (4, 6.00871245822480040000e-003) (5, -1.35069204735867120000e-002) (6, 3.09640337624007170000e-002) (7, -6.23590586268442990000e-003) (0, 1.97295968820518160000e-002) (1, 1.75163166250371750000e-002) (2, 1.04253216602655190000e-001) (3, 6.77264755347613130000e-002) (4, -2.49217744703785390000e-002) (5, 2.46369115565310650000e-002) (6, 1.95622463553395340000e-002) (7, -1.03556401865083130000e-002) (0, 1.60541519082108460000e-002) (1, -1.06886365444908900000e-001) (2, -3.55136489665536310000e-002) (3, -1.61112610570905330000e-003) (4, 2.28696949683422110000e-002) (5, -2.25563169447159130000e-002) (6, -4.20461700543579150000e-002) (7, -6.19684762771898630000e-003) (0, -7.09396320332631070000e-003) (1, -5.26033916607598770000e-002) (2, -4.62604922712767580000e-002) (3, -4.03250746867905640000e-002) (4, 7.84619199843903870000e-003) (5, 4.92544031779187670000e-003) (6, 2.26847369397815530000e-003) (7, -1.84219873203685830000e-002) (0, -4.82359205036527170000e-003) (1, 1.44382557334451790000e-001) (2, 2.26470827517659960000e-002) (3, 4.16995546808779020000e-002) (4, -3.29551877844708530000e-002) (5, -8.94949025058348020000e-003) (6, 3.06375701278512390000e-002) (7, -6.47462011035713790000e-003) (0, -3.57373943027183070000e-002) (1, -3.34001835784288670000e-002) (2, -8.11022669374414080000e-002) (3, -3.49631886900621250000e-002) (4, 2.30747372174528490000e-002) (5, 1.72716752649247040000e-002) (6, -1.38223819443905810000e-002) (7, 2.45902277679445270000e-002) (0, 1.93005525613705770000e-002) (1, 3.38928389385076690000e-002) (2, -2.99836048097259400000e-002) (3, -6.79671322863673220000e-003) (4, -3.58867042464294960000e-004) (5, -1.48238928333071940000e-002) (6, 2.83013029936849510000e-002) (7, -1.10136441190584100000e-002) (0, 2.07183818102111870000e-002) (1, -5.48899842592180390000e-002) (2, -6.10859048011054630000e-002) (3, -3.61741059000225130000e-002) (4, -5.15561022014539640000e-003) (5, -2.69030645351481970000e-002) (6, 2.17365199672389830000e-003) (7, 1.74238882664671390000e-002) (0, 2.56848143080147460000e-002) (1, -3.26800247451455860000e-002) (2, -6.13531378099998610000e-002) (3, -4.69782180399516000000e-002) (4, -2.32361752903724770000e-002) (5, 2.21189742172585650000e-002) (6, -2.42915796740191590000e-003) (7, -2.52640898549394210000e-002) (0, -1.90079540651286670000e-002) (1, 1.96994334191875310000e-002) (2, 1.38133660375770840000e-002) (3, 1.99664431276259590000e-002) (4, 1.88893121307160300000e-002) (5, 1.97906324786203890000e-002) (6, 6.29456698485038320000e-003) (7, -1.55437781423850150000e-002) (0, 4.65867563993067400000e-002) (1, -1.16120424551932610000e-001) (2, 8.27400414912992100000e-002) (3, 4.01095854106517590000e-002) (4, 2.76873831323871870000e-002) (5, 1.05148122752658240000e-002) (6, -3.54757822872365720000e-002) (7, -2.60400887541844370000e-002) (0, -6.50085927266328290000e-003) (1, -2.88431439773412270000e-002) (2, 5.57271489426242220000e-003) (3, -6.34364887095269100000e-004) (4, 1.41144769014490260000e-002) (5, 1.26007115093072670000e-002) (6, -4.23970484027824530000e-002) (7, 2.20758107961378580000e-002) (0, 2.70482012258932950000e-003) (1, -7.51852383473956970000e-002) (2, 4.54136203545913510000e-002) (3, -1.57116086177386120000e-002) (4, -2.46178774496052800000e-002) (5, 5.12154020014540190000e-003) (6, -3.20349721048356910000e-002) (7, -5.13172320923689380000e-003) (0, -1.63727835984551380000e-002) (1, 8.78433727639199020000e-002) (2, -1.96909203667917400000e-002) (3, -4.16027544497777490000e-002) (4, 2.65477278779568150000e-002) (5, -3.53941395658902150000e-002) (6, 1.14614634022063620000e-002) (7, 1.67613945042003850000e-002) (0, 3.92987234347060360000e-002) (1, -1.96298269238180780000e-001) (2, 1.02255958580625560000e-002) (3, 1.12606892741741670000e-002) (4, 2.60576664240744840000e-002) (5, 2.39103563134175460000e-003) (6, -3.61400878972955450000e-002) (7, 2.65813177018437500000e-002) (0, 2.23275135823963260000e-002) (1, -7.60835411822517600000e-002) (2, -1.60244383340055130000e-004) (3, -1.23442049094984510000e-002) (4, 2.91551821987062200000e-002) (5, 2.90639484595796650000e-002) (6, -3.43922204745720220000e-002) (7, 1.36256389612418140000e-002) (0, 9.87417032671056640000e-003) (1, 4.35527063589602960000e-002) (2, -5.62094062746014420000e-002) (3, -3.20327740636794440000e-002) (4, 1.93845788081268050000e-002) (5, 1.48664796367776050000e-002) (6, -1.70705575479015890000e-002) (7, -3.13443652755513380000e-002) (0, 3.62454334623595400000e-002) (1, -6.91567129281963400000e-003) (2, 8.37524626737088000000e-003) (3, -5.64956469108662900000e-003) (4, -2.35119841722675050000e-002) (5, 3.42554212471402470000e-002) (6, 2.38769660725904500000e-003) (7, 2.31726917737842680000e-002) (0, -3.97049842800322810000e-002) (1, 1.15978224010801850000e-001) (2, -9.11006302856604420000e-002) (3, -1.94051243219220270000e-002) (4, -1.55838774204201670000e-002) (5, -4.22492653291659110000e-004) (6, 6.05578085604903190000e-002) (7, -2.45380935944115600000e-003) (0, 6.05693550636282350000e-003) (1, 9.61403971234787850000e-002) (2, -2.51641794934165820000e-003) (3, 3.40622491012929000000e-002) (4, -1.48967859547260340000e-002) (5, -7.17243491970787510000e-003) (6, 2.54822852014006670000e-002) (7, -1.89652202699440580000e-002) (0, -4.79044406056435900000e-002) (1, 1.19025026786528640000e-001) (2, -3.40963152603294200000e-002) (3, -2.52742637347081920000e-002) (4, 3.11071325257871250000e-003) (5, 4.99848910567985550000e-003) (6, 2.37064201567984380000e-002) (7, -2.93106009231031380000e-002) (0, -1.01635215619526680000e-002) (1, 2.88067582579012890000e-002) (2, 6.43905581180006380000e-002) (3, 1.50551195928954800000e-004) (4, -2.06973863808753920000e-002) (5, -4.44578006482484240000e-003) (6, -3.23953786584394100000e-002) (7, 2.99582536661911410000e-002) (0, -3.60696125856154460000e-002) (1, 4.33095381120144690000e-002) (2, -8.89749191915319150000e-002) (3, -6.35277623391080490000e-002) (4, 1.76586249910890840000e-002) (5, -7.91734477814538820000e-003) (6, 2.46812839444553460000e-002) (7, 3.12954888519121990000e-004) (0, -1.75668520455235300000e-002) (1, -3.54680288867858240000e-002) (2, -1.13549914251449520000e-001) (3, -8.48889237361399870000e-002) (4, 1.62380149201412710000e-002) (5, -1.83610385919448850000e-002) (6, 4.03389052799355070000e-002) (7, 2.55662549278172680000e-002) (0, -5.75875943830303360000e-002) (1, 7.47450550432940810000e-002) (2, -8.64142553293076880000e-002) (3, -8.43428479730043700000e-002) (4, 1.89974382870433320000e-002) (5, -2.19174141935902750000e-002) (6, 5.39085858051812780000e-002) (7, -1.71191399490756920000e-002) (0, 1.12412539537695400000e-002) (1, -1.23843177357777290000e-001) (2, 2.57016921196829630000e-002) (3, -1.18060030994113170000e-002) (4, 1.98854614709114180000e-002) (5, 3.85445756663444840000e-002) (6, -3.56732932654406020000e-002) (7, -8.61850409826105110000e-003) (0, 1.23168854323429420000e-003) (1, -4.85109414422782440000e-002) (2, 7.36049125460704750000e-002) (3, 2.30431577429276590000e-002) (4, 3.31717902770027190000e-002) (5, 1.01238423027845590000e-002) (6, -7.09615720068868320000e-003) (7, 2.87127903757227010000e-002) (0, -5.78581625303826660000e-002) (1, 1.78744345510055940000e-001) (2, -1.34529192374784280000e-001) (3, -9.56256893625571370000e-002) (4, -3.56229031893111820000e-002) (5, 5.14326405247874690000e-003) (6, 6.88309902890018310000e-002) (7, -3.11734859031940520000e-003) (0, 8.59361313406077630000e-003) (1, -6.56306268186659590000e-003) (2, 7.59356340302224510000e-002) (3, 6.61897222064590370000e-002) (4, 1.39143415984412080000e-002) (5, 1.51160805331337220000e-002) (6, -4.09809286782998190000e-002) (7, 2.29945863509928260000e-002) (0, -1.44050907672084900000e-002) (1, 3.97605750743520790000e-002) (2, 7.91702502047677700000e-002) (3, 6.03346569179831270000e-002) (4, -1.20907397449757730000e-002) (5, 2.49908642857102450000e-002) (6, -1.76548079988919530000e-002) (7, 5.19346278108566250000e-003) (0, -4.38225261451851350000e-002) (1, 7.06317309723308170000e-002) (2, -4.67353097806761100000e-002) (3, 1.28110058127393750000e-003) (4, 1.14594693714847750000e-002) (5, -4.04654897648548120000e-002) (6, 6.13952672014236610000e-003) (7, -3.09103405640313130000e-002) (0, -1.70248872430709370000e-002) (1, 1.13729937022173200000e-001) (2, 8.68558037085530030000e-002) (3, 6.01601057014771940000e-002) (4, -2.97537483146848410000e-002) (5, -2.44925386719213910000e-002) (6, -2.37515026528238890000e-003) (7, 1.07477135918560340000e-002) (0, 2.06698320654124000000e-002) (1, -1.10112486050542940000e-001) (2, 1.50782320731766270000e-002) (3, 1.71176999224633110000e-002) (4, -2.18164408566312540000e-003) (5, 2.87277903640393430000e-002) (6, -1.21015896770345530000e-002) (7, -8.70685692009138530000e-004) (0, 8.49771363638506150000e-003) (1, -9.24833758825293830000e-003) (2, 1.38020401465162880000e-002) (3, 4.03934788635357120000e-002) (4, 2.86245716837357780000e-002) (5, -1.34659295521440250000e-002) (6, -3.81044702188859450000e-002) (7, -2.18980547945658020000e-002) (0, 6.63123842666016770000e-004) (1, -1.88802613026491160000e-002) (2, -6.48535571606701220000e-002) (3, -1.38943117917523440000e-002) (4, -2.80134708807645880000e-002) (5, -2.76510478734575340000e-002) (6, 1.99412883226409880000e-002) (7, 2.29696975182040290000e-002) (0, -4.52969232926542650000e-002) (1, 1.00474756540524250000e-001) (2, -7.57992824784398670000e-002) (3, -3.80039877955783630000e-002) (4, -3.13672531966701710000e-002) (5, -4.28975922946856350000e-002) (6, 2.01010511746506500000e-002) (7, -7.37514375791546020000e-003) (0, 2.83285656288273270000e-002) (1, 4.16781084684460860000e-002) (2, 2.59997383478902600000e-002) (3, 3.99876356461554350000e-002) (4, -3.98500043132166480000e-002) (5, 1.14319386078427920000e-003) (6, 2.36341924303934660000e-002) (7, -9.38529843432104290000e-003) (0, -4.22382136914130350000e-002) (1, 1.18011463387089090000e-001) (2, 3.74843052806014610000e-002) (3, -2.64947453902020100000e-002) (4, -7.63929869125784530000e-003) (5, -3.40522707660588420000e-003) (6, 1.98080300264634710000e-002) (7, 5.75864336194076370000e-003) (0, -8.69289341731146500000e-003) (1, 3.46349906809781600000e-002) (2, -3.33226293231258940000e-002) (3, -4.23500641476946340000e-002) (4, -2.67043303649127300000e-002) (5, 2.10477103740768050000e-002) (6, -2.32506492570536300000e-002) (7, -3.21092438002144880000e-002) (0, -7.25288940371566440000e-003) (1, -3.40966678648773750000e-002) (2, -1.65651434824599690000e-002) (3, 4.95449871846420560000e-003) (4, 8.31515942361284870000e-003) (5, 2.62226015405149680000e-002) (6, -2.17643575293595160000e-002) (7, -1.08620923566056530000e-002) (0, -2.58051148508066310000e-002) (1, 2.80598516881198390000e-002) (2, 2.58861424093362910000e-002) (3, 7.31202420418411150000e-004) (4, -4.39644445240470420000e-003) (5, 7.01403121713645330000e-003) (6, 2.48028216115172320000e-002) (7, -4.40526870179102840000e-003) (0, 4.03395421151029610000e-002) (1, -1.34038077652218530000e-001) (2, 1.04088712683123350000e-001) (3, 6.66287799677280500000e-002) (4, -3.96324936154200840000e-003) (5, 3.09269520279546220000e-002) (6, -5.27692159210915520000e-002) (7, 1.46983056778506360000e-003) (0, -2.86010781317485410000e-002) (1, 3.68419480347071950000e-002) (2, -4.92210032573040730000e-002) (3, -3.56678740024537820000e-002) (4, 3.38725197174643350000e-002) (5, -2.96453156554102590000e-002) (6, 2.05256503677228100000e-002) (7, 5.31146205837125690000e-004) (0, -3.22735438257325740000e-002) (1, -3.60425789949067600000e-002) (2, -1.53514078365859520000e-002) (3, -1.57481511723661060000e-002) (4, -2.31903939640526500000e-002) (5, -3.22037039726506690000e-002) (6, 5.44847691480443340000e-003) (7, -1.76370168527668970000e-002) (0, -3.44788978731460500000e-002) (1, 6.46012161981447260000e-002) (2, -4.41125925383770300000e-002) (3, -4.26275590124084100000e-002) (4, 2.99565302296000110000e-003) (5, -3.17812433318671870000e-002) (6, 2.80553205032970410000e-002) (7, 2.61845988610594770000e-002) (0, -1.08776033482328020000e-002) (1, 1.11747134059423240000e-001) (2, 8.69005063282980720000e-002) (3, 6.17055329855517100000e-002) (4, 6.10625341993545090000e-003) (5, 2.77419928085723760000e-002) (6, 6.55564988681275710000e-003) (7, -1.17900074770263820000e-002) (0, 1.07349822409270250000e-002) (1, -1.02925543252757460000e-001) (2, -3.37326571943534490000e-003) (3, -4.62360007352764990000e-002) (4, -4.32628161626890780000e-003) (5, -1.36684408988141030000e-002) (6, -1.67541317250047390000e-002) (7, 3.30199849049664720000e-002) (0, -4.91201867841676090000e-002) (1, 1.10178353781880480000e-001) (2, -1.07919546491792450000e-001) (3, -2.02636492873011460000e-002) (4, 1.01864757719464780000e-002) (5, -3.59904300209012710000e-002) (6, 4.02641432355394930000e-002) (7, 2.12522129095834080000e-002) (0, 1.73779629909184100000e-002) (1, -1.73102492796105600000e-002) (2, -1.57337430449994950000e-002) (3, -1.58998648828701860000e-002) (4, -2.12394177877927580000e-002) (5, 2.27366956496361660000e-002) (6, -3.35359829984921140000e-002) (7, 2.25294916595491080000e-002) (0, 3.18329310249624370000e-002) (1, -7.67285903175777130000e-002) (2, -3.14038728528077820000e-002) (3, 1.12827730129991690000e-002) (4, 3.83963359981485610000e-002) (5, -1.29309113990747420000e-002) (6, -3.78403631780216960000e-002) (7, 1.98662746760678650000e-002) (0, 3.66146349413155600000e-002) (1, -1.22251772822368490000e-001) (2, 8.69822555740785850000e-002) (3, 7.71311512251695590000e-002) (4, 2.25253573596661850000e-002) (5, 2.82402162472534870000e-002) (6, -3.06891597077938550000e-002) (7, 6.03428744233022040000e-003) (0, -3.46020237511785290000e-003) (1, 3.88708919813136600000e-002) (2, -7.47886669323489930000e-002) (3, -7.35935423140613170000e-002) (4, 7.01455273636904850000e-003) (5, -3.08660843202612990000e-003) (6, -1.52322556234523580000e-002) (7, -5.59836390657374000000e-003) (0, 2.98880123262303570000e-002) (1, -1.71938955235607730000e-001) (2, 6.57096618281956670000e-002) (3, 6.48365521969361540000e-002) (4, 3.15317777908013590000e-002) (5, 4.62822883654960270000e-002) (6, -4.63619918438355210000e-002) (7, -1.32558765957665960000e-003) (0, 4.36513007691563880000e-003) (1, 5.47386889241807190000e-002) (2, 4.94909275849406350000e-002) (3, 4.04816735356918060000e-002) (4, 1.31857621003841350000e-002) (5, 1.43392207677480780000e-002) (6, 1.09885134071501850000e-002) (7, 3.93436680566134830000e-003) (0, -2.77208306038518040000e-002) (1, 1.65315552436849700000e-001) (2, -1.08673468423167410000e-001) (3, -8.33041168103732940000e-002) (4, -2.34170136928102440000e-002) (5, -7.76257297470460580000e-003) (6, 7.22917521904369730000e-002) (7, 1.33507151853166210000e-002) (0, 4.15865940758932820000e-002) (1, -1.36494736727711310000e-001) (2, 4.46074572428615880000e-002) (3, 4.16071837661290760000e-002) (4, 1.45050217914663300000e-002) (5, -9.23543685465673220000e-003) (6, 8.93673387903192580000e-005) (7, 6.44963035908502870000e-003) (0, -2.83902657514532970000e-002) (1, 2.94575972119989140000e-002) (2, -6.50174700316143300000e-002) (3, -5.21321666691962960000e-002) (4, -8.69127394616876600000e-003) (5, 2.11646084293168960000e-002) (6, 2.60756719057606420000e-002) (7, 3.01674347534850680000e-003) (0, -1.48493986225940990000e-002) (1, -2.99224783261922010000e-002) (2, -1.00911568613623350000e-001) (3, -8.64828216871849910000e-002) (4, 1.37695427889670420000e-003) (5, -4.42669135221752320000e-002) (6, -9.70225906587885920000e-003) (7, -1.73765399541201610000e-002) (0, 7.09805748093648470000e-003) (1, -1.20545646422636770000e-001) (2, 5.71764911043793140000e-002) (3, 1.22013590550496890000e-002) (4, 2.00947741010799010000e-002) (5, 2.22747340386895250000e-002) (6, -4.48670478967269640000e-002) (7, 3.33700467106585810000e-002) (0, -4.68040693815307970000e-002) (1, -2.62411784586155570000e-003) (2, -1.17520768525174440000e-001) (3, -8.31667956783049280000e-002) (4, 4.06298881480682480000e-002) (5, -3.32525583842507580000e-002) (6, -1.31693462659382840000e-002) (7, -5.01143983882173900000e-003) (0, -4.09829182219511660000e-002) (1, 1.47948629707342040000e-001) (2, -7.09212241634074450000e-002) (3, -5.37297513086320980000e-002) (4, -1.97625676683536030000e-002) (5, -1.17536361074307980000e-003) (6, 6.10653237970090260000e-002) (7, 2.02071288333380490000e-002) (0, 2.05040335247924470000e-002) (1, -1.13416293047011490000e-002) (2, -4.96449110162873050000e-002) (3, -7.03135441778570020000e-003) (4, 1.58936257354634730000e-002) (5, -1.88172262558502260000e-002) (6, 3.37472084200445620000e-002) (7, 1.01594913680166170000e-002) (0, -2.29654102186260150000e-002) (1, 6.11393049484965640000e-002) (2, 3.45912906074108340000e-002) (3, 2.89732328722723310000e-003) (4, -6.87370474142399210000e-003) (5, 2.38587779081216590000e-002) (6, 2.80404012610498200000e-002) (7, 1.90609107702397650000e-002) (0, 5.83974940762450110000e-002) (1, -2.33196726116553260000e-001) (2, 7.43739706277912050000e-002) (3, 6.51727292972235500000e-002) (4, -2.34960983740015520000e-002) (5, 2.10062354723602570000e-002) (6, -8.63091003496349730000e-002) (7, 2.25414706050799420000e-002) (0, 8.55942938481695820000e-003) (1, -3.15738978305248610000e-002) (2, 2.70169583938567820000e-003) (3, 2.48706940490209530000e-002) (4, 6.41499320256532030000e-004) (5, -2.55838684455402770000e-002) (6, 2.34650245617420600000e-002) (7, -1.52911519891458100000e-002) (0, 2.07854187278099580000e-002) (1, 6.54517150942802990000e-002) (2, -1.89484977900491840000e-002) (3, -7.85553152554123550000e-004) (4, 3.38336261773766540000e-002) (5, -5.01366496827635160000e-003) (6, 3.74890588480554580000e-002) (7, -1.00014531908488280000e-002) (0, 1.31107957518745990000e-003) (1, -8.38341734909837520000e-002) (2, 6.66258230073624520000e-003) (3, -1.61650210022265370000e-002) (4, -2.03684768336138380000e-002) (5, -2.89376093171129600000e-002) (6, -1.12265360430425870000e-002) (7, 3.80601498437357350000e-003) (0, 9.65418981938042340000e-003) (1, 9.07576934487879520000e-002) (2, -8.15882377244435430000e-004) (3, -2.58786790738517700000e-002) (4, 1.84954306002270700000e-002) (5, -3.27883399372536840000e-002) (6, 3.96029186488438340000e-002) (7, 1.27202301708003170000e-002) (0, -5.86213007758210230000e-003) (1, -6.95044430259567340000e-003) (2, 1.08421530345297230000e-002) (3, -2.38548343942483550000e-002) (4, 2.01601775867432110000e-002) (5, 5.62086074400925270000e-003) (6, 3.72486981886860080000e-002) (7, -1.72788700570817260000e-002) (0, 1.10383075105039940000e-002) (1, -7.93296199733448670000e-002) (2, 5.07422988051488210000e-002) (3, 3.21448954325522160000e-002) (4, -9.04160517376113510000e-003) (5, 2.15406055581085290000e-002) (6, -6.94424452345303050000e-003) (7, -4.41434250313196570000e-003) (0, -2.71807117646644460000e-002) (1, 2.56546964088456810000e-002) (2, -4.52511419186509350000e-002) (3, -2.04993842458629750000e-002) (4, -2.02169076117219470000e-002) (5, -2.45993105075830890000e-002) (6, 2.95786753654565490000e-002) (7, 2.50145700714270520000e-002) (0, -3.90680014168894810000e-003) (1, -1.09011387697689670000e-001) (2, 4.87407815005983720000e-002) (3, 5.19870997495555580000e-002) (4, 2.55256558158020140000e-002) (5, 3.35331534324429870000e-002) (6, -4.62484194789374290000e-003) (7, -6.83924062281860390000e-003) (0, 7.43448058154106900000e-003) (1, 2.13151743152054930000e-002) (2, -4.71640331048402690000e-002) (3, -5.07645209129760700000e-002) (4, -2.00592622470543160000e-002) (5, 1.41682695921172760000e-002) (6, 1.61664261765736040000e-002) (7, 1.80267886839422590000e-002) (0, -2.37114045399976800000e-002) (1, -3.43474341467788630000e-002) (2, -9.40120542087342910000e-003) (3, -3.77636813060584360000e-002) (4, -1.60230779537640780000e-002) (5, 6.51050538335974820000e-003) (6, 4.05778626146228310000e-003) (7, -1.67282402298597550000e-002) (0, -2.42504220268514450000e-002) (1, 4.99149894026994430000e-002) (2, 2.33543453740983550000e-002) (3, 1.27621423942504640000e-002) (4, 2.94022245109011140000e-002) (5, 1.29853315985534180000e-002) (6, -2.08876619024729180000e-002) (7, -1.03475100168749210000e-002) (0, -6.89668304065627420000e-003) (1, -8.12093311792236460000e-002) (2, 2.47819597036791210000e-002) (3, 1.71221591322834520000e-003) (4, 3.27081290466790930000e-003) (5, 3.61576148063667900000e-002) (6, 5.56317593748015780000e-003) (7, 1.43113932338058860000e-002) (0, 1.78447161446637780000e-002) (1, 4.91020698820552810000e-002) (2, -2.46423771116894080000e-002) (3, -4.45972423621227630000e-003) (4, 2.77666526756738080000e-002) (5, 3.93154483769150770000e-003) (6, 3.57992579941911760000e-003) (7, 8.18095148528103990000e-003) (0, 3.39934276331615510000e-002) (1, -7.24511276424454060000e-003) (2, -5.81233775467333500000e-003) (3, 4.13730948075415470000e-002) (4, 2.09328421931755030000e-002) (5, -9.96816818414670950000e-003) (6, 9.63558108093044920000e-004) (7, -2.83195846231695140000e-002) (0, -9.39604030210423920000e-004) (1, -1.04266439054184190000e-001) (2, 3.92828040388557500000e-002) (3, 4.27376289135453780000e-002) (4, -2.17499622446277740000e-002) (5, 2.20136450709349230000e-002) (6, -4.79583403827808790000e-002) (7, 4.62930137889328020000e-003) (0, 5.47442914826075790000e-002) (1, -1.49270682277292180000e-001) (2, 3.22049903253850310000e-003) (3, 2.59289107136861550000e-002) (4, -6.30984264852707160000e-004) (5, 3.22195041384921440000e-002) (6, -1.09468427262787190000e-002) (7, 2.25565735779054420000e-002) (0, -3.81818532101025090000e-003) (1, 7.32311417195325490000e-003) (2, -3.28946916524067020000e-002) (3, -2.61221213694014700000e-004) (4, 3.57114769168612320000e-002) (5, -2.12488908603158040000e-002) (6, 2.89014211226151750000e-002) (7, 1.87712213717025730000e-002) (8, -5.66008041622472970000e-002) (9, 9.42035961734752070000e-002) (10, 1.86550592007958850000e-002) (11, -1.00126963844555970000e-001) (12, 1.43614423580895910000e-002) (13, -2.25700559920199230000e-002) (14, 8.90937170811236520000e-002) (15, -4.84630760283213950000e-002) (16, 1.13142092107920770000e-001) (17, -6.07951832721681080000e-003) (18, 2.16760081418724340000e-002) (19, 2.64596074633944440000e-002) (20, -1.06339201419493950000e-001) (21, 1.06120714008408180000e-001) (22, -7.49706443698765070000e-002) (23, 3.06409903746568400000e-002) (24, 1.04073518572340620000e-001) (25, -1.41842302913463610000e-001) (26, -2.67025365857016560000e-002) (27, 6.36561113998949660000e-002) (28, 1.19455224800836740000e-001) (29, -9.81520930551612460000e-003) (30, 1.11338346411340950000e-001) (31, 5.80166191436729610000e-002) (32, 5.87733044735278610000e-002) (33, -1.78331831570343050000e-002) (34, -9.97370818227662910000e-002) (35, 1.92642339824049580000e-002) (36, -1.20803279099005180000e-001) (37, -8.44179820539070620000e-002) (38, 6.69597889215662740000e-002) (39, 1.37553533479814540000e-002) (40, 2.58428264932229620000e-002) (41, 3.62516316340071240000e-002) (42, 2.89854737366961840000e-002) (43, 4.81231916355297980000e-002) (44, 5.48778630919978460000e-002) (45, -6.19750563457983560000e-002) (46, 1.00599117140106870000e-001) (47, -7.44960451640650640000e-002) (48, -4.77886545583339900000e-002) (49, -2.05345794069828370000e-002) (50, 1.90540067629551200000e-001) (51, 6.24305366381933820000e-002) (52, 1.06921292967639070000e-001) (53, -1.39368794679166190000e-001) (54, -2.29544409215506620000e-002) (55, 3.36541371176060570000e-002) (56, -5.87353755148628880000e-002) (57, 8.95291465883973630000e-002) (58, -1.01387648678803020000e-001) (59, 4.74951246414816520000e-002) (60, 7.19791911109874950000e-002) (61, -2.65895054876507420000e-002) (62, 9.52537771193572200000e-003) (63, -6.07362362539850680000e-002) (64, -1.29163224789542700000e-001) (65, 6.40255805671459680000e-002) (66, 5.94137495282718030000e-002) (67, 1.36611155939036390000e-001) (68, -7.18551205217868310000e-002) (69, 5.13945221088577260000e-002) (70, 3.50786958707071800000e-002) (71, -9.11565291558166650000e-002) (72, -1.09786157324029240000e-001) (73, 8.54333250717680960000e-002) (74, -9.35522935549669000000e-002) (75, 6.43072043196459140000e-002) (76, -1.58610878567179430000e-002) (77, -2.39153839496821060000e-002) (78, 6.97693508205761080000e-003) (79, -3.53233575252106250000e-002) (80, 2.35944689519954310000e-002) (81, -1.67238411921119070000e-001) (82, 8.13497579467421270000e-003) (83, 7.21047276537070130000e-002) (84, -1.39796128890910290000e-002) (85, 9.39781145209071280000e-003) (86, -6.89965433710520020000e-002) (87, -2.17694444123590420000e-002) (88, -1.59641076560352400000e-001) (89, 5.21164214639838960000e-002) (90, -1.02079687960722110000e-003) (91, -3.54149778974499760000e-002) (92, -3.37049912999237740000e-003) (93, 5.72421414091286860000e-002) (94, 1.58489777968353340000e-001) (95, 2.50669800406913350000e-002) (96, 4.65016007885611510000e-002) (97, 1.02055154402758880000e-001) (98, -1.40267296160458990000e-001) (99, -3.65294940647359550000e-002) (100, -1.25320329282585280000e-002) (101, 4.82170655604075850000e-002) (102, 1.52662948217356340000e-002) (103, -4.74499181552333060000e-002) (104, -5.54978578771787860000e-002) (105, 2.21542709561785670000e-002) (106, 9.26298736214153370000e-002) (107, 1.06988168603487240000e-001) (108, 6.72464151046012200000e-002) (109, 6.47669194519820330000e-003) (110, -1.40735368143707490000e-001) (111, -7.51393977149957540000e-002) (112, 3.46162045993884390000e-002) (113, 5.16359915161147400000e-002) (114, 4.80236829821858790000e-002) (115, -2.64984050103765430000e-002) (116, -7.34586355732604890000e-002) (117, 1.86192107364729150000e-002) (118, 1.17880989020703740000e-001) (119, -6.59200825267740740000e-002) (120, -6.76309055018073920000e-002) (121, 2.44515007492491600000e-002) (122, 1.80513424514855110000e-001) (123, 9.71725694453432630000e-002) (124, -3.42092507306133930000e-002) (125, -9.26501090203852990000e-002) (126, -1.22577904891805880000e-001) (127, 9.35141456804316900000e-002) (128, 2.11675766871697450000e-002) (129, -7.82496664023557550000e-002) (130, -4.63805832166621220000e-002) (131, 1.22285460432841080000e-001) (132, -3.66640950701610510000e-003) (133, 3.22368889486667060000e-002) (134, -3.66048878114732250000e-002) (135, -1.51740430880951630000e-002) (136, 4.77649813017598770000e-003) (137, -9.45970833811967670000e-002) (138, -3.28215846216192990000e-002) (139, -4.63284579756272770000e-002) (140, 5.82703188394623550000e-002) (141, -1.70430187597425200000e-001) (142, -6.11174330232432460000e-002) (143, 3.57531465980451480000e-002) (144, -1.41959974968641370000e-002) (145, 9.12881175496438050000e-002) (146, 9.11277009716572610000e-002) (147, 1.03553724975625290000e-001) (148, 4.27648496347079670000e-003) (149, 5.35953172239206220000e-002) (150, -4.24933788148047360000e-002) (151, 8.77222035887937900000e-002) (152, -9.66651346226043010000e-002) (153, -6.91158364664542220000e-002) (154, 1.69948520929576020000e-001) (155, -2.06484721204690490000e-002) (156, 4.26353952856618550000e-002) (157, 4.48861190028157640000e-002) (158, 9.90358617616607510000e-002) (159, -7.54538123559482100000e-002) (160, -1.70205690048209520000e-002) (161, -7.04562208813234830000e-003) (162, 1.14385831738446800000e-001) (163, 5.10561009851731240000e-002) (164, 9.04466636020562070000e-002) (165, 4.29850046296357190000e-002) (166, -4.15421653643698800000e-002) (167, 2.91318121124351410000e-002) (168, -1.29502754689686780000e-001) (169, 2.47909950248792160000e-002) (170, -8.53227463216067390000e-003) (171, 6.22947918767551150000e-002) (172, 7.70585509770695400000e-002) (173, -8.32940116802430570000e-002) (174, 9.36398093073685790000e-002) (175, -8.70344559371535010000e-003) (176, -8.33141584394258420000e-002) (177, -1.15895523701336850000e-001) (178, 4.24133244386639550000e-002) (179, -1.49052646345302820000e-001) (180, 3.99649799894814110000e-002) (181, 1.36063004383839200000e-001) (182, -1.14656754949076840000e-001) (183, 4.39677726147566370000e-002) (184, -1.04166893574362300000e-002) (185, -9.62363250767244160000e-002) (186, -8.08716959287799320000e-003) (187, 1.13848552042503650000e-001) (188, -2.73299091785326950000e-002) (189, 2.98635630915535660000e-002) (190, -1.93968308568843310000e-001) (191, -1.86275069672102550000e-002) (192, 2.83509707781445240000e-002) (193, -6.70629909433271830000e-002) (194, 7.79391001342088640000e-002) (195, -2.87501649668949010000e-003) (196, -6.70066289777712790000e-002) (197, 2.83462352184146280000e-002) (198, -1.03910250127878950000e-001) (199, 3.32607077422586650000e-002) (200, -2.99916352381166960000e-002) (201, 1.27144503242554040000e-002) (202, -4.70337836531631720000e-002) (203, 2.98179066737385390000e-002) (204, -3.19149626050986520000e-003) (205, -6.07589645552559370000e-002) (206, -1.20154386840746250000e-001) (207, -1.11212182876113470000e-002) (208, -6.90599936633811280000e-002) (8, -4.78573305144486890000e-002) (9, -1.19221494693553820000e-001) (10, -2.29681706755207360000e-002) (11, 4.48629343220104460000e-002) (12, 2.51618633857472220000e-002) (13, 3.11157096084435200000e-002) (14, -8.47815439920841660000e-002) (15, 1.17170390124958970000e-002) (16, 3.90405988321844840000e-002) (17, -5.57476701807014180000e-002) (18, -4.70211831033111730000e-002) (19, 4.50118087220112710000e-002) (20, 4.85936265374045800000e-002) (21, -4.91536833435678440000e-002) (22, 9.88691623490280530000e-002) (23, -4.26493344048984730000e-002) (24, -1.40971719793367890000e-001) (25, 9.39434472219639880000e-002) (26, -1.62381158125610050000e-002) (27, 8.96047152443769580000e-003) (28, 1.99172838799463630000e-002) (29, 7.39577393111630080000e-003) (30, -1.25793372607402640000e-001) (31, 1.31352076111510340000e-002) (32, -1.76219628043046870000e-002) (33, 1.04417199208752340000e-001) (34, -3.13997000194478350000e-002) (35, -4.23028997975928860000e-002) (36, 5.04516474893483970000e-002) (37, -5.06723448898843830000e-002) (38, 8.59024885300385310000e-004) (39, -9.15789568856923140000e-002) (40, -8.92004895371393130000e-002) (41, -9.88852461728305240000e-002) (42, 9.29816229448964900000e-004) (43, 4.94685546369159070000e-002) (44, -1.20880311615866900000e-001) (45, 6.35600212148659940000e-002) (46, -1.24954108460106500000e-001) (47, 5.36334817195980510000e-002) (48, -7.13818234433642030000e-002) (49, 6.89724231058215230000e-002) (50, -1.75537972686933750000e-001) (51, -6.07664112030179630000e-002) (52, -4.28772806791074410000e-002) (53, -5.15323989368854580000e-002) (54, -5.26864911515960920000e-002) (55, 6.87104076799615190000e-002) (56, -1.85985738721369790000e-003) (57, 4.92246698738481450000e-002) (58, 1.14259140355448820000e-002) (59, -9.76150208324014220000e-002) (60, 9.29135016357998940000e-002) (61, 1.15486749784488100000e-002) (62, 8.44603552681050390000e-002) (63, 8.46858345935001260000e-002) (64, 3.89675172712999480000e-002) (65, 1.39985371311711300000e-002) (66, -7.44710707329071610000e-003) (67, 1.19356986338193060000e-002) (68, 5.31373464515570510000e-002) (69, -1.07674727450460810000e-002) (70, -5.20993415056172050000e-003) (71, 4.09698079105444220000e-002) (72, -2.74389216483794840000e-002) (73, -7.81440864379440160000e-002) (74, 1.52486012342797600000e-001) (75, 3.08321343670484690000e-002) (76, -3.64454250214156710000e-002) (77, 4.62705309985408150000e-003) (78, -6.15168444496726890000e-002) (79, 1.98963624343576930000e-003) (80, 3.88838448598272590000e-002) (81, 5.97338689015459050000e-003) (82, -1.00117419759081410000e-001) (83, -6.58346809852575560000e-003) (84, 4.84569371323238590000e-002) (85, 4.10568012092596830000e-002) (86, 6.99414904584866740000e-002) (87, 8.27475255458356010000e-002) (88, 1.39721330205660910000e-001) (89, -1.15726948373772260000e-001) (90, -5.13179191648344830000e-002) (91, -1.76176609162444210000e-002) (92, -7.06829838901429280000e-003) (93, -7.34688109409694230000e-002) (94, -3.53992333797475690000e-002) (95, 1.03430124201853330000e-002) (96, -3.97010753449159180000e-002) (97, 6.64862111533439800000e-002) (98, 8.57785254225525290000e-002) (99, -9.73328115715422180000e-003) (100, 2.58278215836329380000e-002) (101, -4.98538081011412480000e-002) (102, -7.68598655671880600000e-002) (103, -3.39485331423370760000e-002) (104, 1.25277995708598100000e-001) (105, 3.09685885309569120000e-002) (106, 7.33284020207797820000e-002) (107, -1.61818515732553820000e-001) (108, -3.05514204984980750000e-002) (109, 7.37078102764422980000e-002) (110, 3.35151952288023360000e-002) (111, 7.09815001871747990000e-003) (112, -6.68614142433020670000e-002) (113, 2.98316340012396330000e-002) (114, 3.27172531900737500000e-002) (115, -5.79205301812258240000e-002) (116, 1.05651716569355350000e-001) (117, 5.46663961569888720000e-002) (118, -1.15550553844777960000e-001) (119, 1.01431159970477050000e-001) (120, 4.53018314165485190000e-002) (121, -2.70142589865434470000e-002) (122, -2.63299951536131480000e-002) (123, 8.01048936552315250000e-003) (124, 4.80897739418197430000e-002) (125, 1.17353724837331130000e-002) (126, 8.10751772505659270000e-002) (127, 6.55362203115956580000e-002) (128, 1.16241312606217980000e-001) (129, -3.12216954548510340000e-003) (130, -4.60183224230981610000e-002) (131, 2.41894271480036570000e-002) (132, -7.06666929766468360000e-002) (133, -2.45765515653031120000e-002) (134, -5.36609026741797710000e-002) (135, -4.74748868842303430000e-002) (136, 2.02464917105858320000e-002) (137, 1.15213227559627510000e-001) (138, 1.33148272380057410000e-002) (139, 4.95887413720503270000e-002) (140, -6.74821006603534280000e-002) (141, 5.22182242213039480000e-002) (142, 1.89880069366141590000e-002) (143, -5.32371721306017580000e-002) (144, 1.66633377705427030000e-002) (145, -1.17786053918490540000e-001) (146, 1.08490147021446470000e-002) (147, -6.48245350986717120000e-002) (148, 5.15114097789729770000e-002) (149, -1.15225542699695340000e-001) (150, -1.44332765477593470000e-001) (151, -1.36798270771572190000e-001) (152, 5.03135049471144030000e-002) (153, 6.36782590367303280000e-002) (154, -1.86923033257753280000e-001) (155, 1.00485720634658040000e-001) (156, 9.82217959568304210000e-002) (157, -7.42628980976304950000e-002) (158, 8.00509355632427750000e-002) (159, 5.24177424992984810000e-002) (160, 3.62085423872019890000e-002) (161, -5.34260033823375640000e-002) (162, -1.01402671769140200000e-001) (163, 4.84476635246186840000e-002) (164, -1.25055716602319960000e-002) (165, -4.09022511891630750000e-002) (166, 2.12832377006752630000e-003) (167, 6.06360299233203640000e-003) (168, 1.41084359945131580000e-001) (169, -7.55749650791871790000e-002) (170, -2.41484929757361110000e-002) (171, -7.61111881912757690000e-002) (172, 7.93809467420246300000e-002) (173, -1.23841528073828990000e-002) (174, -1.32804672791673100000e-001) (175, 6.45555901868277720000e-003) (176, -1.17822646494177440000e-002) (177, 1.30227127953616270000e-001) (178, -9.52990355406803100000e-002) (179, 1.25705616274086690000e-001) (180, 5.20783744953696450000e-002) (181, -1.61805938822364740000e-001) (182, 6.85602880199433910000e-002) (183, -7.92942725456759760000e-002) (184, -1.23616255329680920000e-001) (185, 8.40645837088099670000e-002) (186, -1.44680597148166830000e-001) (187, -1.22888968394264050000e-001) (188, -5.68753615525366750000e-002) (189, 9.11785795607324670000e-003) (190, 1.52009851389335760000e-001) (191, 6.88829000348147040000e-003) (192, -3.64131086488478010000e-002) (193, -2.55610187175534790000e-003) (194, -3.50150692691236360000e-002) (195, -1.64082603039257330000e-002) (196, 7.26162630621533380000e-002) (197, -5.91163018861760870000e-002) (198, 7.13055007666663910000e-002) (199, -5.86576016219827120000e-002) (200, -3.43475588635558730000e-002) (201, 3.41052327039048190000e-004) (202, 4.51518528354666530000e-002) (203, -3.37911366252923240000e-002) (204, 3.13680956211334280000e-002) (205, 8.31162273981255470000e-002) (206, 5.69445946313442000000e-002) (207, -5.11842296643557070000e-002) (208, 1.96022255420848500000e-002) (8, -6.96791148751694090000e-002) (9, 4.86138900256615560000e-002) (10, 4.55613249004088100000e-002) (11, -6.74483480181126830000e-002) (12, 2.78363810849787540000e-002) (13, 1.95313973342100930000e-002) (14, 5.84220198461482610000e-002) (15, -2.21374643068682380000e-002) (16, 9.73749113803862310000e-002) (17, 1.80398860136692100000e-002) (18, -2.14234248570465930000e-002) (19, 7.96050325207367930000e-002) (20, -7.04627016333515680000e-002) (21, 3.67978603056780610000e-002) (22, -3.42730654685245580000e-002) (23, -2.22684820907822660000e-002) (24, 3.00344354484626190000e-002) (25, -3.63087668050846090000e-002) (26, -1.96417547796686670000e-002) (27, 7.51187078121270390000e-002) (28, 1.11532945074854830000e-001) (29, -9.55840839613316530000e-003) (30, 4.96646568190522300000e-002) (31, 2.37865312397694330000e-002) (32, 4.39697795642019010000e-002) (33, 1.58948857994461870000e-002) (34, -5.80510318634864100000e-002) (35, -3.28275251525335510000e-003) (36, -7.02948695022943830000e-002) (37, -3.20335800403304250000e-002) (38, 4.32161923220682340000e-002) (39, -5.04844818997945010000e-002) (40, 1.24619167242608960000e-002) (41, -1.25940909807545390000e-002) (42, 3.97935753197440970000e-002) (43, 8.37915794064680310000e-002) (44, -3.07809247606636060000e-002) (45, -4.86133528975887030000e-002) (46, 1.23641866235193430000e-002) (47, -4.79949175446698490000e-002) (48, -4.68538117550496850000e-002) (49, 1.71706521893068950000e-002) (50, 6.42577500494395520000e-002) (51, 5.17183434153232340000e-003) (52, 5.32939738971300240000e-002) (53, -1.27506663211168050000e-001) (54, -4.09777912177975570000e-002) (55, 1.82816753991839890000e-002) (56, -8.24216883808027020000e-002) (57, 6.68920759830837350000e-002) (58, -6.42647782802269750000e-002) (59, -3.50249039228746890000e-002) (60, 4.15419365634617580000e-002) (61, -3.53435437868571330000e-002) (62, 6.19790200717443350000e-002) (63, 3.12089702543559450000e-002) (64, -7.85295673904540660000e-002) (65, -1.08091616119107180000e-002) (66, 6.30849778161033100000e-002) (67, 7.81828266398891110000e-002) (68, -2.53662850000994510000e-002) (69, -4.39202499882964270000e-003) (70, 2.05289149776473400000e-002) (71, -4.37262375317659240000e-002) (72, -7.03989653215233990000e-002) (73, 6.87509725079904400000e-003) (74, -3.12962410171541560000e-002) (75, 3.85879185091900990000e-002) (76, -3.80642139194788830000e-004) (77, -3.66266849698683940000e-002) (78, -3.68967143052314480000e-002) (79, 7.15182678193772640000e-003) (80, 1.87913453661281040000e-002) (81, -1.41613590694063850000e-001) (82, 3.21802222724505180000e-003) (83, 3.01546103539974270000e-002) (84, -1.08026749226650430000e-002) (85, 4.07621947798650010000e-002) (86, -3.45626104661653710000e-002) (87, 3.11572840843894890000e-002) (88, -9.15547548679170740000e-002) (89, -1.58512159550348580000e-003) (90, -2.76320854298470890000e-003) (91, -3.22143806444662310000e-002) (92, -1.11936242784348460000e-002) (93, 2.88355865651320380000e-002) (94, 1.10752076948526580000e-001) (95, -6.15231341065984940000e-003) (96, 4.89376878133272320000e-002) (97, 1.02882836869337220000e-001) (98, -2.71087923788366800000e-002) (99, -1.99776751318636630000e-002) (100, -1.81780666247277100000e-002) (101, -1.82494279971065700000e-003) (102, -3.86289083517086860000e-003) (103, -1.26258755142911060000e-002) (104, -1.91811627178761320000e-002) (105, 1.40021731367313260000e-002) (106, 7.07414432836120240000e-002) (107, 4.74552081206656290000e-002) (108, 4.31240595564956540000e-002) (109, -1.46991376486591970000e-003) (110, -1.09643008042532620000e-001) (111, -4.32686697953927210000e-003) (112, 1.91522907596720910000e-002) (113, 4.08920479494165600000e-002) (114, 2.89580312569697120000e-003) (115, -6.44881725482111260000e-002) (116, -2.78093661032654230000e-002) (117, 2.84070529011163500000e-002) (118, 8.69548829543768590000e-003) (119, 5.09375344245047240000e-003) (120, 5.94695165529749920000e-003) (121, 3.20630165420805750000e-002) (122, 1.14445955972468110000e-001) (123, 5.08589222629650670000e-002) (124, -2.82777797736337290000e-002) (125, -4.97002762060022650000e-002) (126, -9.30443222416370150000e-002) (127, 1.06702562543233750000e-001) (128, 5.15250942853508200000e-002) (129, -8.54327222397347900000e-002) (130, -3.87815642565948120000e-002) (131, 9.44236688797357310000e-002) (132, -6.90853329934208170000e-002) (133, 1.79679927808213470000e-002) (134, -6.24755681928509320000e-002) (135, -5.33469540890198000000e-002) (136, 3.09122170006007820000e-002) (137, -4.90985129517874510000e-002) (138, -2.29774578902051110000e-002) (139, -5.45414331170707910000e-002) (140, 4.20321435833782220000e-002) (141, -1.02926003689090340000e-001) (142, -5.80378409803637770000e-002) (143, -7.80953905378483410000e-003) (144, -1.96786430207401960000e-003) (145, 6.58100365579146060000e-002) (146, 5.70258992466810280000e-002) (147, 5.36933613588835290000e-002) (148, 4.12298075257545030000e-002) (149, -1.96360755072789820000e-002) (150, -3.05889715994046500000e-002) (151, -4.77500832994013930000e-003) (152, -7.35126141840977830000e-002) (153, 2.38397260879261550000e-002) (154, 4.58515844714082470000e-002) (155, 3.15323747717696360000e-002) (156, 3.39099356743752800000e-002) (157, 4.88247907108182720000e-002) (158, 8.25711043653816060000e-002) (159, -7.03191785913962060000e-002) (160, 1.30542109666531350000e-003) (161, -3.72316379027975640000e-002) (162, -1.75695942153008040000e-003) (163, 1.88215527932035910000e-002) (164, 8.41027904119677620000e-002) (165, -2.47002238649430480000e-002) (166, -1.25877701775876720000e-002) (167, 2.52241327174479410000e-002) (168, -2.59375039829849750000e-002) (169, 7.48329618465551180000e-003) (170, -3.51699539021914430000e-002) (171, 9.25507699958908260000e-003) (172, 1.07123757077521680000e-001) (173, -7.01126017158934110000e-002) (174, 4.49770641353081780000e-002) (175, -2.42708960767036990000e-002) (176, -4.31794965751070780000e-002) (177, -1.96739402497839790000e-002) (178, -3.04214073123193170000e-002) (179, -7.56951735706312550000e-002) (180, 5.29511212803699320000e-002) (181, 7.19068530432477590000e-002) (182, -6.53067814624134630000e-002) (183, -2.74972281665256110000e-002) (184, -7.55401243846222370000e-002) (185, -6.04621146268850270000e-002) (186, -4.91708835114367870000e-002) (187, 7.91262420502941710000e-002) (188, 6.41598235180268140000e-003) (189, 6.91692931872950610000e-002) (190, -1.19664809419077940000e-001) (191, -1.56656319264756770000e-002) (192, 5.72390303065508500000e-002) (193, -5.02946863226618330000e-002) (194, 5.44862428350506990000e-002) (195, 6.86554720376082030000e-003) (196, -1.20647068656336980000e-002) (197, -4.25335801920878870000e-003) (198, -2.39518301426672880000e-002) (199, -2.18153793176973090000e-002) (200, -3.24770078218352340000e-002) (201, 5.74490199955593130000e-002) (202, -5.48534007274741260000e-002) (203, 2.94382545217211250000e-002) (204, -1.87055387414511890000e-002) (205, -7.36276932646179880000e-002) (206, -8.81576480650610730000e-002) (207, 1.51645247740712140000e-002) (208, -4.43749662660127000000e-003) 
